<?xml version="1.0"?>
<MethodSetup Method="BDT::BDT">
  <GeneralInfo>
    <Info name="TMVA Release" value="4.2.1 [262657]"/>
    <Info name="ROOT Release" value="6.12/07 [396295]"/>
    <Info name="Creator" value="bhoh"/>
    <Info name="Date" value="Tue Oct 15 22:11:07 2019"/>
    <Info name="Host" value="Linux cmsbuild76.cern.ch 2.6.32-696.30.1.el6.x86_64 #1 SMP Tue May 22 06:09:36 CEST 2018 x86_64 x86_64 x86_64 GNU/Linux"/>
    <Info name="Dir" value="/data4/backup_data2/Users/bhoh/MultiUniv/MultiUniv/PyAnalyzers/scripts"/>
    <Info name="Training events" value="12864"/>
    <Info name="TrainingTime" value="8.80512619e+00"/>
    <Info name="AnalysisType" value="Classification"/>
  </GeneralInfo>
  <Options>
    <Option name="V" modified="Yes">False</Option>
    <Option name="VerbosityLevel" modified="No">Default</Option>
    <Option name="VarTransform" modified="No">None</Option>
    <Option name="H" modified="Yes">False</Option>
    <Option name="CreateMVAPdfs" modified="No">False</Option>
    <Option name="IgnoreNegWeightsInTraining" modified="No">False</Option>
    <Option name="NTrees" modified="Yes">850</Option>
    <Option name="MaxDepth" modified="Yes">3</Option>
    <Option name="MinNodeSize" modified="No">1.1660453.2</Option>
    <Option name="nCuts" modified="Yes">20</Option>
    <Option name="BoostType" modified="Yes">AdaBoost</Option>
    <Option name="AdaBoostR2Loss" modified="No">quadratic</Option>
    <Option name="UseBaggedBoost" modified="No">False</Option>
    <Option name="Shrinkage" modified="No">1.000000e+00</Option>
    <Option name="AdaBoostBeta" modified="Yes">5.000000e-01</Option>
    <Option name="UseRandomisedTrees" modified="No">False</Option>
    <Option name="UseNvars" modified="No">4</Option>
    <Option name="UsePoissonNvars" modified="No">True</Option>
    <Option name="BaggedSampleFraction" modified="No">6.000000e-01</Option>
    <Option name="UseYesNoLeaf" modified="No">True</Option>
    <Option name="NegWeightTreatment" modified="No">inverseboostnegweights</Option>
    <Option name="Css" modified="No">1.000000e+00</Option>
    <Option name="Cts_sb" modified="No">1.000000e+00</Option>
    <Option name="Ctb_ss" modified="No">1.000000e+00</Option>
    <Option name="Cbb" modified="No">1.000000e+00</Option>
    <Option name="NodePurityLimit" modified="No">5.000000e-01</Option>
    <Option name="SeparationType" modified="Yes">giniindex</Option>
    <Option name="RegressionLossFunctionBDTG" modified="No">huber</Option>
    <Option name="HuberQuantile" modified="No">7.000000e-01</Option>
    <Option name="DoBoostMonitor" modified="No">False</Option>
    <Option name="UseFisherCuts" modified="No">False</Option>
    <Option name="MinLinCorrForFisher" modified="No">8.000000e-01</Option>
    <Option name="UseExclusiveVars" modified="No">False</Option>
    <Option name="DoPreselection" modified="No">False</Option>
    <Option name="SigToBkgFraction" modified="No">1.000000e+00</Option>
    <Option name="PruneMethod" modified="Yes">nopruning</Option>
    <Option name="PruneStrength" modified="No">0.000000e+00</Option>
    <Option name="PruningValFraction" modified="No">5.000000e-01</Option>
    <Option name="SkipNormalization" modified="No">False</Option>
    <Option name="nEventsMin" modified="Yes">150</Option>
    <Option name="UseBaggedGrad" modified="No">False</Option>
    <Option name="GradBaggingFraction" modified="No">6.000000e-01</Option>
    <Option name="UseNTrainEvents" modified="No">0</Option>
    <Option name="NNodesMax" modified="No">0</Option>
  </Options>
  <Variables NVar="15">
    <Variable VarIndex="0" Expression="leptonic_top_mass" Label="leptonic_top_mass" Title="leptonic_top_mass" Unit="" Internal="leptonic_top_mass" Type="D" Min="3.09769764e+01" Max="9.54392761e+02"/>
    <Variable VarIndex="1" Expression="tt_deltaR" Label="tt_deltaR" Title="tt_deltaR" Unit="" Internal="tt_deltaR" Type="D" Min="6.85541555e-02" Max="7.02553844e+00"/>
    <Variable VarIndex="2" Expression="dijet_cosThetaTB" Label="dijet_cosThetaTB" Title="dijet_cosThetaTB" Unit="" Internal="dijet_cosThetaTB" Type="D" Min="-9.52083707e-01" Max="1.00000000e+00"/>
    <Variable VarIndex="3" Expression="dijet_cosThetaTC" Label="dijet_cosThetaTC" Title="dijet_cosThetaTC" Unit="" Internal="dijet_cosThetaTC" Type="D" Min="-9.23824072e-01" Max="1.00000000e+00"/>
    <Variable VarIndex="4" Expression="W_MT" Label="W_MT" Title="W_MT" Unit="" Internal="W_MT" Type="D" Min="6.53001633e+01" Max="8.93192566e+02"/>
    <Variable VarIndex="5" Expression="up_type_jet_pt" Label="up_type_jet_pt" Title="up_type_jet_pt" Unit="" Internal="up_type_jet_pt" Type="D" Min="3.00062160e+01" Max="4.86436798e+02"/>
    <Variable VarIndex="6" Expression="had_top_pt" Label="had_top_pt" Title="had_top_pt" Unit="" Internal="had_top_pt" Type="D" Min="7.10789680e-01" Max="5.49370972e+02"/>
    <Variable VarIndex="7" Expression="hadronic_top_mass" Label="hadronic_top_mass" Title="hadronic_top_mass" Unit="" Internal="hadronic_top_mass" Type="D" Min="5.40038757e+01" Max="1.46109766e+03"/>
    <Variable VarIndex="8" Expression="had_top_b_jet_pt" Label="had_top_b_jet_pt" Title="had_top_b_jet_pt" Unit="" Internal="had_top_b_jet_pt" Type="D" Min="3.00309849e+01" Max="3.76926300e+02"/>
    <Variable VarIndex="9" Expression="dijet_deltaR" Label="dijet_deltaR" Title="dijet_deltaR" Unit="" Internal="dijet_deltaR" Type="D" Min="4.06814575e-01" Max="5.36244488e+00"/>
    <Variable VarIndex="10" Expression="lep_top_pt" Label="lep_top_pt" Title="lep_top_pt" Unit="" Internal="lep_top_pt" Type="D" Min="2.07247686e+00" Max="5.40009094e+02"/>
    <Variable VarIndex="11" Expression="tt_MT" Label="tt_MT" Title="tt_MT" Unit="" Internal="tt_MT" Type="D" Min="2.48118835e+02" Max="1.96084534e+03"/>
    <Variable VarIndex="12" Expression="down_type_jet_pt" Label="down_type_jet_pt" Title="down_type_jet_pt" Unit="" Internal="down_type_jet_pt" Type="D" Min="3.00309849e+01" Max="3.76926300e+02"/>
    <Variable VarIndex="13" Expression="lep_top_b_jet_pt" Label="lep_top_b_jet_pt" Title="lep_top_b_jet_pt" Unit="" Internal="lep_top_b_jet_pt" Type="D" Min="3.00309849e+01" Max="3.76926300e+02"/>
    <Variable VarIndex="14" Expression="dijet_deltaEta" Label="dijet_deltaEta" Title="dijet_deltaEta" Unit="" Internal="dijet_deltaEta" Type="D" Min="3.68356705e-05" Max="4.45819998e+00"/>
  </Variables>
  <Spectators NSpec="0"/>
  <Classes NClass="2">
    <Class Name="Signal" Index="0"/>
    <Class Name="Background" Index="1"/>
  </Classes>
  <Transformations NTransformations="0"/>
  <MVAPdfs/>
  <Weights NTrees="850" AnalysisType="0">
    <BinaryTree type="DecisionTree" boostWeight="6.7359405436837327e-01" itree="0">
      <Node pos="s" depth="0" NCoef="0" IVar="7" Cut="1.8801280212402344e+02" cType="1" res="-9.9000000000000000e+01" rms="0.0000000000000000e+00" purity="5.0000000000000000e-01" nType="0">
        <Node pos="l" depth="1" NCoef="0" IVar="1" Cut="2.2265813350677490e+00" cType="0" res="-9.9000000000000000e+01" rms="0.0000000000000000e+00" purity="7.1004098653793335e-01" nType="0">
          <Node pos="l" depth="2" NCoef="0" IVar="7" Cut="1.1781374359130859e+02" cType="0" res="-9.9000000000000000e+01" rms="0.0000000000000000e+00" purity="7.6726031303405762e-01" nType="0">
            <Node pos="l" depth="3" NCoef="0" IVar="-1" Cut="0.0000000000000000e+00" cType="1" res="-9.9000000000000000e+01" rms="0.0000000000000000e+00" purity="7.8245061635971069e-01" nType="1"/>
            <Node pos="r" depth="3" NCoef="0" IVar="-1" Cut="0.0000000000000000e+00" cType="1" res="-9.9000000000000000e+01" rms="0.0000000000000000e+00" purity="2.7433341741561890e-01" nType="-1"/>
          </Node>
          <Node pos="r" depth="2" NCoef="0" IVar="-1" Cut="1.9246076345443726e+00" cType="0" res="-9.9000000000000000e+01" rms="0.0000000000000000e+00" purity="2.0367640256881714e-01" nType="-1"/>
        </Node>
        <Node pos="r" depth="1" NCoef="0" IVar="7" Cut="2.4863778686523438e+02" cType="1" res="-9.9000000000000000e+01" rms="0.0000000000000000e+00" purity="2.1143567562103271e-01" nType="0">
          <Node pos="l" depth="2" NCoef="0" IVar="1" Cut="2.7188339233398438e+00" cType="0" res="-9.9000000000000000e+01" rms="0.0000000000000000e+00" purity="3.8033342361450195e-01" nType="0">
            <Node pos="l" depth="3" NCoef="0" IVar="-1" Cut="0.0000000000000000e+00" cType="1" res="-9.9000000000000000e+01" rms="0.0000000000000000e+00" purity="5.3005141019821167e-01" nType="1"/>
            <Node pos="r" depth="3" NCoef="0" IVar="-1" Cut="0.0000000000000000e+00" cType="1" res="-9.9000000000000000e+01" rms="0.0000000000000000e+00" purity="1.0714079439640045e-01" nType="-1"/>
          </Node>
          <Node pos="r" depth="2" NCoef="0" IVar="-1" Cut="1.9988652038574219e+02" cType="0" res="-9.9000000000000000e+01" rms="0.0000000000000000e+00" purity="1.8970832228660583e-02" nType="-1"/>
        </Node>
      </Node>
    </BinaryTree>
    <BinaryTree type="DecisionTree" boostWeight="4.7122919249426715e-01" itree="1">
      <Node pos="s" depth="0" NCoef="0" IVar="7" Cut="1.8801280212402344e+02" cType="1" res="-9.9000000000000000e+01" rms="0.0000000000000000e+00" purity="4.4008770585060120e-01" nType="0">
        <Node pos="l" depth="1" NCoef="0" IVar="1" Cut="2.8199748992919922e+00" cType="0" res="-9.9000000000000000e+01" rms="0.0000000000000000e+00" purity="6.0947722196578979e-01" nType="0">
          <Node pos="l" depth="2" NCoef="0" IVar="-1" Cut="1.5576864624023438e+02" cType="0" res="-9.9000000000000000e+01" rms="0.0000000000000000e+00" purity="6.8688136339187622e-01" nType="1"/>
          <Node pos="r" depth="2" NCoef="0" IVar="-1" Cut="1.5106457471847534e+00" cType="0" res="-9.9000000000000000e+01" rms="0.0000000000000000e+00" purity="3.9853754639625549e-01" nType="-1"/>
        </Node>
        <Node pos="r" depth="1" NCoef="0" IVar="-1" Cut="2.4863778686523438e+02" cType="1" res="-9.9000000000000000e+01" rms="0.0000000000000000e+00" purity="2.0228549838066101e-01" nType="-1"/>
      </Node>
    </BinaryTree>
    <BinaryTree type="DecisionTree" boostWeight="2.6067844379282029e-01" itree="2">
      <Node pos="s" depth="0" NCoef="0" IVar="7" Cut="2.5501727294921875e+02" cType="1" res="-9.9000000000000000e+01" rms="0.0000000000000000e+00" purity="4.5205032825469971e-01" nType="0">
        <Node pos="l" depth="1" NCoef="0" IVar="7" Cut="2.2623995971679688e+02" cType="1" res="-9.9000000000000000e+01" rms="0.0000000000000000e+00" purity="5.1415818929672241e-01" nType="0">
          <Node pos="l" depth="2" NCoef="0" IVar="6" Cut="1.5803799438476562e+02" cType="0" res="-9.9000000000000000e+01" rms="0.0000000000000000e+00" purity="5.4911988973617554e-01" nType="0">
            <Node pos="l" depth="3" NCoef="0" IVar="-1" Cut="0.0000000000000000e+00" cType="1" res="-9.9000000000000000e+01" rms="0.0000000000000000e+00" purity="7.6402527093887329e-01" nType="1"/>
            <Node pos="r" depth="3" NCoef="0" IVar="-1" Cut="0.0000000000000000e+00" cType="1" res="-9.9000000000000000e+01" rms="0.0000000000000000e+00" purity="4.9974820017814636e-01" nType="-1"/>
          </Node>
          <Node pos="r" depth="2" NCoef="0" IVar="-1" Cut="8.2592033386230469e+01" cType="0" res="-9.9000000000000000e+01" rms="0.0000000000000000e+00" purity="1.8612414598464966e-02" nType="-1"/>
        </Node>
        <Node pos="r" depth="1" NCoef="0" IVar="-1" Cut="1.9988652038574219e+02" cType="0" res="-9.9000000000000000e+01" rms="0.0000000000000000e+00" purity="6.1118975281715393e-02" nType="-1"/>
      </Node>
    </BinaryTree>
    <BinaryTree type="DecisionTree" boostWeight="3.9689018068328069e-01" itree="3">
      <Node pos="s" depth="0" NCoef="0" IVar="7" Cut="2.5501727294921875e+02" cType="1" res="-9.9000000000000000e+01" rms="0.0000000000000000e+00" purity="4.9724593758583069e-01" nType="0">
        <Node pos="l" depth="1" NCoef="0" IVar="7" Cut="2.2623995971679688e+02" cType="1" res="-9.9000000000000000e+01" rms="0.0000000000000000e+00" purity="5.5750674009323120e-01" nType="0">
          <Node pos="l" depth="2" NCoef="0" IVar="9" Cut="1.1176874637603760e+00" cType="0" res="-9.9000000000000000e+01" rms="0.0000000000000000e+00" purity="5.9087693691253662e-01" nType="0">
            <Node pos="l" depth="3" NCoef="0" IVar="-1" Cut="0.0000000000000000e+00" cType="1" res="-9.9000000000000000e+01" rms="0.0000000000000000e+00" purity="6.2610369920730591e-01" nType="1"/>
            <Node pos="r" depth="3" NCoef="0" IVar="-1" Cut="0.0000000000000000e+00" cType="1" res="-9.9000000000000000e+01" rms="0.0000000000000000e+00" purity="2.8839203715324402e-01" nType="-1"/>
          </Node>
          <Node pos="r" depth="2" NCoef="0" IVar="-1" Cut="8.2592033386230469e+01" cType="0" res="-9.9000000000000000e+01" rms="0.0000000000000000e+00" purity="2.4022229015827179e-02" nType="-1"/>
        </Node>
        <Node pos="r" depth="1" NCoef="0" IVar="-1" Cut="1.9988652038574219e+02" cType="0" res="-9.9000000000000000e+01" rms="0.0000000000000000e+00" purity="7.7902853488922119e-02" nType="-1"/>
      </Node>
    </BinaryTree>
    <BinaryTree type="DecisionTree" boostWeight="2.4547045537708767e-01" itree="4">
      <Node pos="s" depth="0" NCoef="0" IVar="7" Cut="2.5501727294921875e+02" cType="1" res="-9.9000000000000000e+01" rms="0.0000000000000000e+00" purity="4.4688817858695984e-01" nType="0">
        <Node pos="l" depth="1" NCoef="0" IVar="7" Cut="2.2623995971679688e+02" cType="1" res="-9.9000000000000000e+01" rms="0.0000000000000000e+00" purity="4.8970159888267517e-01" nType="0">
          <Node pos="l" depth="2" NCoef="0" IVar="10" Cut="1.5576864624023438e+02" cType="0" res="-9.9000000000000000e+01" rms="0.0000000000000000e+00" purity="5.1411563158035278e-01" nType="0">
            <Node pos="l" depth="3" NCoef="0" IVar="-1" Cut="0.0000000000000000e+00" cType="1" res="-9.9000000000000000e+01" rms="0.0000000000000000e+00" purity="6.8442791700363159e-01" nType="1"/>
            <Node pos="r" depth="3" NCoef="0" IVar="-1" Cut="0.0000000000000000e+00" cType="1" res="-9.9000000000000000e+01" rms="0.0000000000000000e+00" purity="4.6704292297363281e-01" nType="-1"/>
          </Node>
          <Node pos="r" depth="2" NCoef="0" IVar="-1" Cut="8.2592033386230469e+01" cType="0" res="-9.9000000000000000e+01" rms="0.0000000000000000e+00" purity="3.5312406718730927e-02" nType="-1"/>
        </Node>
        <Node pos="r" depth="1" NCoef="0" IVar="-1" Cut="1.9988652038574219e+02" cType="0" res="-9.9000000000000000e+01" rms="0.0000000000000000e+00" purity="1.1162015795707703e-01" nType="-1"/>
      </Node>
    </BinaryTree>
    <BinaryTree type="DecisionTree" boostWeight="2.8956316959389278e-01" itree="5">
      <Node pos="s" depth="0" NCoef="0" IVar="7" Cut="2.5501727294921875e+02" cType="1" res="-9.9000000000000000e+01" rms="0.0000000000000000e+00" purity="4.8526206612586975e-01" nType="0">
        <Node pos="l" depth="1" NCoef="0" IVar="7" Cut="2.2623995971679688e+02" cType="1" res="-9.9000000000000000e+01" rms="0.0000000000000000e+00" purity="5.2621811628341675e-01" nType="0">
          <Node pos="l" depth="2" NCoef="0" IVar="9" Cut="1.4731239080429077e+00" cType="0" res="-9.9000000000000000e+01" rms="0.0000000000000000e+00" purity="5.4952788352966309e-01" nType="0">
            <Node pos="l" depth="3" NCoef="0" IVar="-1" Cut="0.0000000000000000e+00" cType="1" res="-9.9000000000000000e+01" rms="0.0000000000000000e+00" purity="5.9253036975860596e-01" nType="1"/>
            <Node pos="r" depth="3" NCoef="0" IVar="-1" Cut="0.0000000000000000e+00" cType="1" res="-9.9000000000000000e+01" rms="0.0000000000000000e+00" purity="3.7868383526802063e-01" nType="-1"/>
          </Node>
          <Node pos="r" depth="2" NCoef="0" IVar="-1" Cut="8.2592033386230469e+01" cType="0" res="-9.9000000000000000e+01" rms="0.0000000000000000e+00" purity="4.4697970151901245e-02" nType="-1"/>
        </Node>
        <Node pos="r" depth="1" NCoef="0" IVar="-1" Cut="1.9988652038574219e+02" cType="0" res="-9.9000000000000000e+01" rms="0.0000000000000000e+00" purity="1.3837803900241852e-01" nType="-1"/>
      </Node>
    </BinaryTree>
    <BinaryTree type="DecisionTree" boostWeight="1.9064967512387998e-01" itree="6">
      <Node pos="s" depth="0" NCoef="0" IVar="7" Cut="2.5501727294921875e+02" cType="1" res="-9.9000000000000000e+01" rms="0.0000000000000000e+00" purity="4.5743465423583984e-01" nType="0">
        <Node pos="l" depth="1" NCoef="0" IVar="7" Cut="2.1667127990722656e+02" cType="1" res="-9.9000000000000000e+01" rms="0.0000000000000000e+00" purity="4.8815405368804932e-01" nType="0">
          <Node pos="l" depth="2" NCoef="0" IVar="6" Cut="1.8412684631347656e+02" cType="0" res="-9.9000000000000000e+01" rms="0.0000000000000000e+00" purity="5.1568597555160522e-01" nType="0">
            <Node pos="l" depth="3" NCoef="0" IVar="-1" Cut="0.0000000000000000e+00" cType="1" res="-9.9000000000000000e+01" rms="0.0000000000000000e+00" purity="7.5429731607437134e-01" nType="1"/>
            <Node pos="r" depth="3" NCoef="0" IVar="-1" Cut="0.0000000000000000e+00" cType="1" res="-9.9000000000000000e+01" rms="0.0000000000000000e+00" purity="4.8231834173202515e-01" nType="-1"/>
          </Node>
          <Node pos="r" depth="2" NCoef="0" IVar="-1" Cut="2.2406579589843750e+02" cType="1" res="-9.9000000000000000e+01" rms="0.0000000000000000e+00" purity="1.8069200217723846e-01" nType="-1"/>
        </Node>
        <Node pos="r" depth="1" NCoef="0" IVar="-1" Cut="6.3082294464111328e+01" cType="1" res="-9.9000000000000000e+01" rms="0.0000000000000000e+00" purity="1.7664225399494171e-01" nType="-1"/>
      </Node>
    </BinaryTree>
    <BinaryTree type="DecisionTree" boostWeight="2.2463517436006858e-01" itree="7">
      <Node pos="s" depth="0" NCoef="0" IVar="1" Cut="1.7249790430068970e+00" cType="0" res="-9.9000000000000000e+01" rms="0.0000000000000000e+00" purity="4.9522164463996887e-01" nType="0">
        <Node pos="l" depth="1" NCoef="0" IVar="7" Cut="2.5501727294921875e+02" cType="1" res="-9.9000000000000000e+01" rms="0.0000000000000000e+00" purity="5.2070099115371704e-01" nType="0">
          <Node pos="l" depth="2" NCoef="0" IVar="7" Cut="2.2623995971679688e+02" cType="1" res="-9.9000000000000000e+01" rms="0.0000000000000000e+00" purity="5.4625231027603149e-01" nType="0">
            <Node pos="l" depth="3" NCoef="0" IVar="-1" Cut="0.0000000000000000e+00" cType="1" res="-9.9000000000000000e+01" rms="0.0000000000000000e+00" purity="5.6288683414459229e-01" nType="1"/>
            <Node pos="r" depth="3" NCoef="0" IVar="-1" Cut="0.0000000000000000e+00" cType="1" res="-9.9000000000000000e+01" rms="0.0000000000000000e+00" purity="8.2983158528804779e-02" nType="-1"/>
          </Node>
          <Node pos="r" depth="2" NCoef="0" IVar="-1" Cut="6.3082294464111328e+01" cType="1" res="-9.9000000000000000e+01" rms="0.0000000000000000e+00" purity="2.4536597728729248e-01" nType="-1"/>
        </Node>
        <Node pos="r" depth="1" NCoef="0" IVar="11" Cut="4.1123565673828125e+02" cType="1" res="-9.9000000000000000e+01" rms="0.0000000000000000e+00" purity="1.4522746205329895e-01" nType="0">
          <Node pos="l" depth="2" NCoef="0" IVar="13" Cut="5.5079650878906250e+01" cType="0" res="-9.9000000000000000e+01" rms="0.0000000000000000e+00" purity="3.3016189932823181e-01" nType="0">
            <Node pos="l" depth="3" NCoef="0" IVar="-1" Cut="0.0000000000000000e+00" cType="1" res="-9.9000000000000000e+01" rms="0.0000000000000000e+00" purity="5.8680653572082520e-01" nType="1"/>
            <Node pos="r" depth="3" NCoef="0" IVar="-1" Cut="0.0000000000000000e+00" cType="1" res="-9.9000000000000000e+01" rms="0.0000000000000000e+00" purity="1.5202096104621887e-01" nType="-1"/>
          </Node>
          <Node pos="r" depth="2" NCoef="0" IVar="-1" Cut="0.0000000000000000e+00" cType="1" res="-9.9000000000000000e+01" rms="0.0000000000000000e+00" purity="0.0000000000000000e+00" nType="-1"/>
        </Node>
      </Node>
    </BinaryTree>
    <BinaryTree type="DecisionTree" boostWeight="1.5740921076025369e-01" itree="8">
      <Node pos="s" depth="0" NCoef="0" IVar="1" Cut="1.7249790430068970e+00" cType="0" res="-9.9000000000000000e+01" rms="0.0000000000000000e+00" purity="4.5660811662673950e-01" nType="0">
        <Node pos="l" depth="1" NCoef="0" IVar="6" Cut="2.0972419738769531e+02" cType="0" res="-9.9000000000000000e+01" rms="0.0000000000000000e+00" purity="4.7736516594886780e-01" nType="0">
          <Node pos="l" depth="2" NCoef="0" IVar="-1" Cut="1.1277053070068359e+02" cType="1" res="-9.9000000000000000e+01" rms="0.0000000000000000e+00" purity="6.9810229539871216e-01" nType="1"/>
          <Node pos="r" depth="2" NCoef="0" IVar="-1" Cut="1.3507441282272339e+00" cType="0" res="-9.9000000000000000e+01" rms="0.0000000000000000e+00" purity="4.5487040281295776e-01" nType="-1"/>
        </Node>
        <Node pos="r" depth="1" NCoef="0" IVar="11" Cut="4.1123565673828125e+02" cType="1" res="-9.9000000000000000e+01" rms="0.0000000000000000e+00" purity="1.5084026753902435e-01" nType="0">
          <Node pos="l" depth="2" NCoef="0" IVar="9" Cut="2.5472872257232666e+00" cType="0" res="-9.9000000000000000e+01" rms="0.0000000000000000e+00" purity="3.3115807175636292e-01" nType="0">
            <Node pos="l" depth="3" NCoef="0" IVar="-1" Cut="0.0000000000000000e+00" cType="1" res="-9.9000000000000000e+01" rms="0.0000000000000000e+00" purity="5.1223629713058472e-01" nType="1"/>
            <Node pos="r" depth="3" NCoef="0" IVar="-1" Cut="0.0000000000000000e+00" cType="1" res="-9.9000000000000000e+01" rms="0.0000000000000000e+00" purity="1.4811411499977112e-01" nType="-1"/>
          </Node>
          <Node pos="r" depth="2" NCoef="0" IVar="-1" Cut="0.0000000000000000e+00" cType="1" res="-9.9000000000000000e+01" rms="0.0000000000000000e+00" purity="0.0000000000000000e+00" nType="-1"/>
        </Node>
      </Node>
    </BinaryTree>
    <BinaryTree type="DecisionTree" boostWeight="1.8020442626066904e-01" itree="9">
      <Node pos="s" depth="0" NCoef="0" IVar="1" Cut="1.7249790430068970e+00" cType="0" res="-9.9000000000000000e+01" rms="0.0000000000000000e+00" purity="4.8778423666954041e-01" nType="0">
        <Node pos="l" depth="1" NCoef="0" IVar="7" Cut="3.2202172851562500e+02" cType="1" res="-9.9000000000000000e+01" rms="0.0000000000000000e+00" purity="5.0946068763732910e-01" nType="0">
          <Node pos="l" depth="2" NCoef="0" IVar="7" Cut="2.1990525817871094e+02" cType="1" res="-9.9000000000000000e+01" rms="0.0000000000000000e+00" purity="5.2241706848144531e-01" nType="0">
            <Node pos="l" depth="3" NCoef="0" IVar="-1" Cut="0.0000000000000000e+00" cType="1" res="-9.9000000000000000e+01" rms="0.0000000000000000e+00" purity="5.4658031463623047e-01" nType="1"/>
            <Node pos="r" depth="3" NCoef="0" IVar="-1" Cut="0.0000000000000000e+00" cType="1" res="-9.9000000000000000e+01" rms="0.0000000000000000e+00" purity="2.7973866462707520e-01" nType="-1"/>
          </Node>
          <Node pos="r" depth="2" NCoef="0" IVar="-1" Cut="4.6614883422851562e+01" cType="1" res="-9.9000000000000000e+01" rms="0.0000000000000000e+00" purity="1.6525533795356750e-01" nType="-1"/>
        </Node>
        <Node pos="r" depth="1" NCoef="0" IVar="11" Cut="4.1123565673828125e+02" cType="1" res="-9.9000000000000000e+01" rms="0.0000000000000000e+00" purity="1.5277712047100067e-01" nType="0">
          <Node pos="l" depth="2" NCoef="0" IVar="12" Cut="5.0735145568847656e+01" cType="0" res="-9.9000000000000000e+01" rms="0.0000000000000000e+00" purity="3.2599472999572754e-01" nType="0">
            <Node pos="l" depth="3" NCoef="0" IVar="-1" Cut="0.0000000000000000e+00" cType="1" res="-9.9000000000000000e+01" rms="0.0000000000000000e+00" purity="5.0858891010284424e-01" nType="1"/>
            <Node pos="r" depth="3" NCoef="0" IVar="-1" Cut="0.0000000000000000e+00" cType="1" res="-9.9000000000000000e+01" rms="0.0000000000000000e+00" purity="1.5783891081809998e-01" nType="-1"/>
          </Node>
          <Node pos="r" depth="2" NCoef="0" IVar="-1" Cut="0.0000000000000000e+00" cType="1" res="-9.9000000000000000e+01" rms="0.0000000000000000e+00" purity="0.0000000000000000e+00" nType="-1"/>
        </Node>
      </Node>
    </BinaryTree>
    <BinaryTree type="DecisionTree" boostWeight="2.0822881872582508e-01" itree="10">
      <Node pos="s" depth="0" NCoef="0" IVar="1" Cut="1.7249790430068970e+00" cType="0" res="-9.9000000000000000e+01" rms="0.0000000000000000e+00" purity="4.5682382583618164e-01" nType="0">
        <Node pos="l" depth="1" NCoef="0" IVar="1" Cut="3.2401628494262695e+00" cType="0" res="-9.9000000000000000e+01" rms="0.0000000000000000e+00" purity="4.7531235218048096e-01" nType="0">
          <Node pos="l" depth="2" NCoef="0" IVar="6" Cut="7.9090812683105469e+01" cType="0" res="-9.9000000000000000e+01" rms="0.0000000000000000e+00" purity="5.6960612535476685e-01" nType="0">
            <Node pos="l" depth="3" NCoef="0" IVar="-1" Cut="0.0000000000000000e+00" cType="1" res="-9.9000000000000000e+01" rms="0.0000000000000000e+00" purity="6.5169608592987061e-01" nType="1"/>
            <Node pos="r" depth="3" NCoef="0" IVar="-1" Cut="0.0000000000000000e+00" cType="1" res="-9.9000000000000000e+01" rms="0.0000000000000000e+00" purity="4.6728846430778503e-01" nType="-1"/>
          </Node>
          <Node pos="r" depth="2" NCoef="0" IVar="5" Cut="6.2751670837402344e+01" cType="0" res="-9.9000000000000000e+01" rms="0.0000000000000000e+00" purity="4.3268260359764099e-01" nType="0">
            <Node pos="l" depth="3" NCoef="0" IVar="-1" Cut="0.0000000000000000e+00" cType="1" res="-9.9000000000000000e+01" rms="0.0000000000000000e+00" purity="5.1697766780853271e-01" nType="1"/>
            <Node pos="r" depth="3" NCoef="0" IVar="-1" Cut="0.0000000000000000e+00" cType="1" res="-9.9000000000000000e+01" rms="0.0000000000000000e+00" purity="3.7134379148483276e-01" nType="-1"/>
          </Node>
        </Node>
        <Node pos="r" depth="1" NCoef="0" IVar="11" Cut="4.1123565673828125e+02" cType="1" res="-9.9000000000000000e+01" rms="0.0000000000000000e+00" purity="1.5579961240291595e-01" nType="0">
          <Node pos="l" depth="2" NCoef="0" IVar="13" Cut="5.5079650878906250e+01" cType="0" res="-9.9000000000000000e+01" rms="0.0000000000000000e+00" purity="3.2201483845710754e-01" nType="0">
            <Node pos="l" depth="3" NCoef="0" IVar="-1" Cut="0.0000000000000000e+00" cType="1" res="-9.9000000000000000e+01" rms="0.0000000000000000e+00" purity="5.3358668088912964e-01" nType="1"/>
            <Node pos="r" depth="3" NCoef="0" IVar="-1" Cut="0.0000000000000000e+00" cType="1" res="-9.9000000000000000e+01" rms="0.0000000000000000e+00" purity="1.6427958011627197e-01" nType="-1"/>
          </Node>
          <Node pos="r" depth="2" NCoef="0" IVar="-1" Cut="0.0000000000000000e+00" cType="1" res="-9.9000000000000000e+01" rms="0.0000000000000000e+00" purity="0.0000000000000000e+00" nType="-1"/>
        </Node>
      </Node>
    </BinaryTree>
    <BinaryTree type="DecisionTree" boostWeight="2.5503816974256638e-01" itree="11">
      <Node pos="s" depth="0" NCoef="0" IVar="9" Cut="1.8227089643478394e+00" cType="0" res="-9.9000000000000000e+01" rms="0.0000000000000000e+00" purity="4.6139872074127197e-01" nType="0">
        <Node pos="l" depth="1" NCoef="0" IVar="4" Cut="1.8357051086425781e+02" cType="1" res="-9.9000000000000000e+01" rms="0.0000000000000000e+00" purity="5.1080363988876343e-01" nType="0">
          <Node pos="l" depth="2" NCoef="0" IVar="-1" Cut="3.3859879970550537e+00" cType="0" res="-9.9000000000000000e+01" rms="0.0000000000000000e+00" purity="5.5241227149963379e-01" nType="1"/>
          <Node pos="r" depth="2" NCoef="0" IVar="-1" Cut="8.9153511047363281e+01" cType="0" res="-9.9000000000000000e+01" rms="0.0000000000000000e+00" purity="2.3632049560546875e-01" nType="-1"/>
        </Node>
        <Node pos="r" depth="1" NCoef="0" IVar="10" Cut="1.5576864624023438e+02" cType="0" res="-9.9000000000000000e+01" rms="0.0000000000000000e+00" purity="3.5090613365173340e-01" nType="0">
          <Node pos="l" depth="2" NCoef="0" IVar="9" Cut="8.8437330722808838e-01" cType="0" res="-9.9000000000000000e+01" rms="0.0000000000000000e+00" purity="5.5910223722457886e-01" nType="0">
            <Node pos="l" depth="3" NCoef="0" IVar="-1" Cut="0.0000000000000000e+00" cType="1" res="-9.9000000000000000e+01" rms="0.0000000000000000e+00" purity="6.1559969186782837e-01" nType="1"/>
            <Node pos="r" depth="3" NCoef="0" IVar="-1" Cut="0.0000000000000000e+00" cType="1" res="-9.9000000000000000e+01" rms="0.0000000000000000e+00" purity="3.4293735027313232e-01" nType="-1"/>
          </Node>
          <Node pos="r" depth="2" NCoef="0" IVar="-1" Cut="1.4169740676879883e+00" cType="0" res="-9.9000000000000000e+01" rms="0.0000000000000000e+00" purity="2.0514318346977234e-01" nType="-1"/>
        </Node>
      </Node>
    </BinaryTree>
    <BinaryTree type="DecisionTree" boostWeight="1.8486843798359892e-01" itree="12">
      <Node pos="s" depth="0" NCoef="0" IVar="1" Cut="1.7249790430068970e+00" cType="0" res="-9.9000000000000000e+01" rms="0.0000000000000000e+00" purity="4.3381828069686890e-01" nType="0">
        <Node pos="l" depth="1" NCoef="0" IVar="8" Cut="6.3068634033203125e+01" cType="1" res="-9.9000000000000000e+01" rms="0.0000000000000000e+00" purity="4.5097622275352478e-01" nType="0">
          <Node pos="l" depth="2" NCoef="0" IVar="0" Cut="2.2258938598632812e+02" cType="1" res="-9.9000000000000000e+01" rms="0.0000000000000000e+00" purity="4.9378761649131775e-01" nType="0">
            <Node pos="l" depth="3" NCoef="0" IVar="-1" Cut="0.0000000000000000e+00" cType="1" res="-9.9000000000000000e+01" rms="0.0000000000000000e+00" purity="5.2406793832778931e-01" nType="1"/>
            <Node pos="r" depth="3" NCoef="0" IVar="-1" Cut="0.0000000000000000e+00" cType="1" res="-9.9000000000000000e+01" rms="0.0000000000000000e+00" purity="3.5490587353706360e-01" nType="-1"/>
          </Node>
          <Node pos="r" depth="2" NCoef="0" IVar="-1" Cut="7.9090812683105469e+01" cType="0" res="-9.9000000000000000e+01" rms="0.0000000000000000e+00" purity="3.6180886626243591e-01" nType="-1"/>
        </Node>
        <Node pos="r" depth="1" NCoef="0" IVar="-1" Cut="4.1123565673828125e+02" cType="1" res="-9.9000000000000000e+01" rms="0.0000000000000000e+00" purity="1.4277124404907227e-01" nType="-1"/>
      </Node>
    </BinaryTree>
    <BinaryTree type="DecisionTree" boostWeight="2.2385276597421577e-01" itree="13">
      <Node pos="s" depth="0" NCoef="0" IVar="1" Cut="3.0501189231872559e+00" cType="0" res="-9.9000000000000000e+01" rms="0.0000000000000000e+00" purity="4.3045261502265930e-01" nType="0">
        <Node pos="l" depth="1" NCoef="0" IVar="7" Cut="3.2917462158203125e+02" cType="1" res="-9.9000000000000000e+01" rms="0.0000000000000000e+00" purity="4.9564525485038757e-01" nType="0">
          <Node pos="l" depth="2" NCoef="0" IVar="6" Cut="7.9090812683105469e+01" cType="0" res="-9.9000000000000000e+01" rms="0.0000000000000000e+00" purity="5.0808346271514893e-01" nType="0">
            <Node pos="l" depth="3" NCoef="0" IVar="-1" Cut="0.0000000000000000e+00" cType="1" res="-9.9000000000000000e+01" rms="0.0000000000000000e+00" purity="5.6724917888641357e-01" nType="1"/>
            <Node pos="r" depth="3" NCoef="0" IVar="-1" Cut="0.0000000000000000e+00" cType="1" res="-9.9000000000000000e+01" rms="0.0000000000000000e+00" purity="4.0727758407592773e-01" nType="-1"/>
          </Node>
          <Node pos="r" depth="2" NCoef="0" IVar="-1" Cut="0.0000000000000000e+00" cType="1" res="-9.9000000000000000e+01" rms="0.0000000000000000e+00" purity="0.0000000000000000e+00" nType="-1"/>
        </Node>
        <Node pos="r" depth="1" NCoef="0" IVar="-1" Cut="1.9140836000442505e+00" cType="0" res="-9.9000000000000000e+01" rms="0.0000000000000000e+00" purity="3.6771520972251892e-01" nType="-1"/>
      </Node>
    </BinaryTree>
    <BinaryTree type="DecisionTree" boostWeight="2.4004363923044136e-01" itree="14">
      <Node pos="s" depth="0" NCoef="0" IVar="9" Cut="1.3507441282272339e+00" cType="0" res="-9.9000000000000000e+01" rms="0.0000000000000000e+00" purity="4.5138883590698242e-01" nType="0">
        <Node pos="l" depth="1" NCoef="0" IVar="7" Cut="2.0391383361816406e+02" cType="1" res="-9.9000000000000000e+01" rms="0.0000000000000000e+00" purity="4.7839662432670593e-01" nType="0">
          <Node pos="l" depth="2" NCoef="0" IVar="12" Cut="5.6550968170166016e+01" cType="0" res="-9.9000000000000000e+01" rms="0.0000000000000000e+00" purity="5.2064383029937744e-01" nType="0">
            <Node pos="l" depth="3" NCoef="0" IVar="-1" Cut="0.0000000000000000e+00" cType="1" res="-9.9000000000000000e+01" rms="0.0000000000000000e+00" purity="6.0755783319473267e-01" nType="1"/>
            <Node pos="r" depth="3" NCoef="0" IVar="-1" Cut="0.0000000000000000e+00" cType="1" res="-9.9000000000000000e+01" rms="0.0000000000000000e+00" purity="4.6095865964889526e-01" nType="-1"/>
          </Node>
          <Node pos="r" depth="2" NCoef="0" IVar="-1" Cut="2.1158421039581299e+00" cType="0" res="-9.9000000000000000e+01" rms="0.0000000000000000e+00" purity="3.2928988337516785e-01" nType="-1"/>
        </Node>
        <Node pos="r" depth="1" NCoef="0" IVar="6" Cut="1.8449691772460938e+02" cType="0" res="-9.9000000000000000e+01" rms="0.0000000000000000e+00" purity="2.8384980559349060e-01" nType="0">
          <Node pos="l" depth="2" NCoef="0" IVar="6" Cut="2.7143850708007812e+02" cType="0" res="-9.9000000000000000e+01" rms="0.0000000000000000e+00" purity="5.2754032611846924e-01" nType="0">
            <Node pos="l" depth="3" NCoef="0" IVar="-1" Cut="0.0000000000000000e+00" cType="1" res="-9.9000000000000000e+01" rms="0.0000000000000000e+00" purity="6.4307063817977905e-01" nType="1"/>
            <Node pos="r" depth="3" NCoef="0" IVar="-1" Cut="0.0000000000000000e+00" cType="1" res="-9.9000000000000000e+01" rms="0.0000000000000000e+00" purity="3.8001766800880432e-01" nType="-1"/>
          </Node>
          <Node pos="r" depth="2" NCoef="0" IVar="-1" Cut="1.4132283020019531e+02" cType="0" res="-9.9000000000000000e+01" rms="0.0000000000000000e+00" purity="7.0970386266708374e-02" nType="-1"/>
        </Node>
      </Node>
    </BinaryTree>
    <BinaryTree type="DecisionTree" boostWeight="1.4578893567568718e-01" itree="15">
      <Node pos="s" depth="0" NCoef="0" IVar="9" Cut="1.3507441282272339e+00" cType="0" res="-9.9000000000000000e+01" rms="0.0000000000000000e+00" purity="4.7339490056037903e-01" nType="0">
        <Node pos="l" depth="1" NCoef="0" IVar="0" Cut="2.9481005859375000e+02" cType="1" res="-9.9000000000000000e+01" rms="0.0000000000000000e+00" purity="5.0023150444030762e-01" nType="0">
          <Node pos="l" depth="2" NCoef="0" IVar="1" Cut="1.0699105262756348e+00" cType="0" res="-9.9000000000000000e+01" rms="0.0000000000000000e+00" purity="5.1552885770797729e-01" nType="0">
            <Node pos="l" depth="3" NCoef="0" IVar="-1" Cut="0.0000000000000000e+00" cType="1" res="-9.9000000000000000e+01" rms="0.0000000000000000e+00" purity="5.2299427986145020e-01" nType="1"/>
            <Node pos="r" depth="3" NCoef="0" IVar="-1" Cut="0.0000000000000000e+00" cType="1" res="-9.9000000000000000e+01" rms="0.0000000000000000e+00" purity="0.0000000000000000e+00" nType="-1"/>
          </Node>
          <Node pos="r" depth="2" NCoef="0" IVar="-1" Cut="2.3060630798339844e+02" cType="1" res="-9.9000000000000000e+01" rms="0.0000000000000000e+00" purity="2.1916607022285461e-01" nType="-1"/>
        </Node>
        <Node pos="r" depth="1" NCoef="0" IVar="10" Cut="1.5576864624023438e+02" cType="0" res="-9.9000000000000000e+01" rms="0.0000000000000000e+00" purity="2.9832136631011963e-01" nType="0">
          <Node pos="l" depth="2" NCoef="0" IVar="12" Cut="7.9646026611328125e+01" cType="0" res="-9.9000000000000000e+01" rms="0.0000000000000000e+00" purity="4.8236683011054993e-01" nType="0">
            <Node pos="l" depth="3" NCoef="0" IVar="-1" Cut="0.0000000000000000e+00" cType="1" res="-9.9000000000000000e+01" rms="0.0000000000000000e+00" purity="5.9275537729263306e-01" nType="1"/>
            <Node pos="r" depth="3" NCoef="0" IVar="-1" Cut="0.0000000000000000e+00" cType="1" res="-9.9000000000000000e+01" rms="0.0000000000000000e+00" purity="3.3233830332756042e-01" nType="-1"/>
          </Node>
          <Node pos="r" depth="2" NCoef="0" IVar="-1" Cut="1.1905458831787109e+02" cType="0" res="-9.9000000000000000e+01" rms="0.0000000000000000e+00" purity="2.4161862209439278e-02" nType="-1"/>
        </Node>
      </Node>
    </BinaryTree>
    <BinaryTree type="DecisionTree" boostWeight="1.8424574958880682e-01" itree="16">
      <Node pos="s" depth="0" NCoef="0" IVar="9" Cut="2.0586912631988525e+00" cType="0" res="-9.9000000000000000e+01" rms="0.0000000000000000e+00" purity="4.4690132141113281e-01" nType="0">
        <Node pos="l" depth="1" NCoef="0" IVar="4" Cut="2.2299395751953125e+02" cType="1" res="-9.9000000000000000e+01" rms="0.0000000000000000e+00" purity="4.9124497175216675e-01" nType="0">
          <Node pos="l" depth="2" NCoef="0" IVar="1" Cut="3.4083926677703857e+00" cType="0" res="-9.9000000000000000e+01" rms="0.0000000000000000e+00" purity="5.0823920965194702e-01" nType="0">
            <Node pos="l" depth="3" NCoef="0" IVar="-1" Cut="0.0000000000000000e+00" cType="1" res="-9.9000000000000000e+01" rms="0.0000000000000000e+00" purity="6.3948839902877808e-01" nType="1"/>
            <Node pos="r" depth="3" NCoef="0" IVar="-1" Cut="0.0000000000000000e+00" cType="1" res="-9.9000000000000000e+01" rms="0.0000000000000000e+00" purity="4.6894580125808716e-01" nType="-1"/>
          </Node>
          <Node pos="r" depth="2" NCoef="0" IVar="-1" Cut="1.2981826782226562e+02" cType="0" res="-9.9000000000000000e+01" rms="0.0000000000000000e+00" purity="9.8091073334217072e-02" nType="-1"/>
        </Node>
        <Node pos="r" depth="1" NCoef="0" IVar="-1" Cut="7.8920562744140625e+01" cType="0" res="-9.9000000000000000e+01" rms="0.0000000000000000e+00" purity="3.7556242942810059e-01" nType="-1"/>
      </Node>
    </BinaryTree>
    <BinaryTree type="DecisionTree" boostWeight="1.0341022786648429e-01" itree="17">
      <Node pos="s" depth="0" NCoef="0" IVar="7" Cut="3.8902621459960938e+02" cType="1" res="-9.9000000000000000e+01" rms="0.0000000000000000e+00" purity="4.7998645901679993e-01" nType="0">
        <Node pos="l" depth="1" NCoef="0" IVar="7" Cut="2.1352032470703125e+02" cType="1" res="-9.9000000000000000e+01" rms="0.0000000000000000e+00" purity="4.8667940497398376e-01" nType="0">
          <Node pos="l" depth="2" NCoef="0" IVar="0" Cut="9.9417427062988281e+01" cType="0" res="-9.9000000000000000e+01" rms="0.0000000000000000e+00" purity="5.0961804389953613e-01" nType="0">
            <Node pos="l" depth="3" NCoef="0" IVar="-1" Cut="0.0000000000000000e+00" cType="1" res="-9.9000000000000000e+01" rms="0.0000000000000000e+00" purity="5.1909399032592773e-01" nType="1"/>
            <Node pos="r" depth="3" NCoef="0" IVar="-1" Cut="0.0000000000000000e+00" cType="1" res="-9.9000000000000000e+01" rms="0.0000000000000000e+00" purity="2.1747186779975891e-01" nType="-1"/>
          </Node>
          <Node pos="r" depth="2" NCoef="0" IVar="-1" Cut="2.1812117099761963e+00" cType="0" res="-9.9000000000000000e+01" rms="0.0000000000000000e+00" purity="3.4130290150642395e-01" nType="-1"/>
        </Node>
        <Node pos="r" depth="1" NCoef="0" IVar="-1" Cut="0.0000000000000000e+00" cType="1" res="-9.9000000000000000e+01" rms="0.0000000000000000e+00" purity="0.0000000000000000e+00" nType="-1"/>
      </Node>
    </BinaryTree>
    <BinaryTree type="DecisionTree" boostWeight="1.0260776840473149e-01" itree="18">
      <Node pos="s" depth="0" NCoef="0" IVar="1" Cut="1.0624090433120728e+00" cType="0" res="-9.9000000000000000e+01" rms="0.0000000000000000e+00" purity="4.6299636363983154e-01" nType="0">
        <Node pos="l" depth="1" NCoef="0" IVar="9" Cut="1.3507441282272339e+00" cType="0" res="-9.9000000000000000e+01" rms="0.0000000000000000e+00" purity="4.6947464346885681e-01" nType="0">
          <Node pos="l" depth="2" NCoef="0" IVar="3" Cut="4.5033597946166992e-01" cType="0" res="-9.9000000000000000e+01" rms="0.0000000000000000e+00" purity="4.8985645174980164e-01" nType="0">
            <Node pos="l" depth="3" NCoef="0" IVar="-1" Cut="0.0000000000000000e+00" cType="1" res="-9.9000000000000000e+01" rms="0.0000000000000000e+00" purity="5.0868242979049683e-01" nType="1"/>
            <Node pos="r" depth="3" NCoef="0" IVar="-1" Cut="0.0000000000000000e+00" cType="1" res="-9.9000000000000000e+01" rms="0.0000000000000000e+00" purity="3.1240218877792358e-01" nType="-1"/>
          </Node>
          <Node pos="r" depth="2" NCoef="0" IVar="10" Cut="1.5576864624023438e+02" cType="0" res="-9.9000000000000000e+01" rms="0.0000000000000000e+00" purity="3.2980260252952576e-01" nType="0">
            <Node pos="l" depth="3" NCoef="0" IVar="-1" Cut="0.0000000000000000e+00" cType="1" res="-9.9000000000000000e+01" rms="0.0000000000000000e+00" purity="5.0384706258773804e-01" nType="1"/>
            <Node pos="r" depth="3" NCoef="0" IVar="-1" Cut="0.0000000000000000e+00" cType="1" res="-9.9000000000000000e+01" rms="0.0000000000000000e+00" purity="3.1965434551239014e-02" nType="-1"/>
          </Node>
        </Node>
        <Node pos="r" depth="1" NCoef="0" IVar="-1" Cut="0.0000000000000000e+00" cType="1" res="-9.9000000000000000e+01" rms="0.0000000000000000e+00" purity="0.0000000000000000e+00" nType="-1"/>
      </Node>
    </BinaryTree>
    <BinaryTree type="DecisionTree" boostWeight="1.4461760519213335e-01" itree="19">
      <Node pos="s" depth="0" NCoef="0" IVar="7" Cut="3.8902621459960938e+02" cType="1" res="-9.9000000000000000e+01" rms="0.0000000000000000e+00" purity="4.4438824057579041e-01" nType="0">
        <Node pos="l" depth="1" NCoef="0" IVar="9" Cut="1.3901536464691162e+00" cType="0" res="-9.9000000000000000e+01" rms="0.0000000000000000e+00" purity="4.5034402608871460e-01" nType="0">
          <Node pos="l" depth="2" NCoef="0" IVar="7" Cut="1.7875666809082031e+02" cType="1" res="-9.9000000000000000e+01" rms="0.0000000000000000e+00" purity="4.7164067625999451e-01" nType="0">
            <Node pos="l" depth="3" NCoef="0" IVar="-1" Cut="0.0000000000000000e+00" cType="1" res="-9.9000000000000000e+01" rms="0.0000000000000000e+00" purity="5.1660209894180298e-01" nType="1"/>
            <Node pos="r" depth="3" NCoef="0" IVar="-1" Cut="0.0000000000000000e+00" cType="1" res="-9.9000000000000000e+01" rms="0.0000000000000000e+00" purity="4.1142296791076660e-01" nType="-1"/>
          </Node>
          <Node pos="r" depth="2" NCoef="0" IVar="-1" Cut="1.5576864624023438e+02" cType="0" res="-9.9000000000000000e+01" rms="0.0000000000000000e+00" purity="3.1569069623947144e-01" nType="-1"/>
        </Node>
        <Node pos="r" depth="1" NCoef="0" IVar="-1" Cut="0.0000000000000000e+00" cType="1" res="-9.9000000000000000e+01" rms="0.0000000000000000e+00" purity="0.0000000000000000e+00" nType="-1"/>
      </Node>
    </BinaryTree>
    <BinaryTree type="DecisionTree" boostWeight="1.6263405787211402e-01" itree="20">
      <Node pos="s" depth="0" NCoef="0" IVar="1" Cut="1.0624090433120728e+00" cType="0" res="-9.9000000000000000e+01" rms="0.0000000000000000e+00" purity="4.4469532370567322e-01" nType="0">
        <Node pos="l" depth="1" NCoef="0" IVar="1" Cut="1.9149078130722046e+00" cType="0" res="-9.9000000000000000e+01" rms="0.0000000000000000e+00" purity="4.5044976472854614e-01" nType="0">
          <Node pos="l" depth="2" NCoef="0" IVar="5" Cut="7.3475791931152344e+01" cType="0" res="-9.9000000000000000e+01" rms="0.0000000000000000e+00" purity="4.6130964159965515e-01" nType="0">
            <Node pos="l" depth="3" NCoef="0" IVar="-1" Cut="0.0000000000000000e+00" cType="1" res="-9.9000000000000000e+01" rms="0.0000000000000000e+00" purity="5.5197834968566895e-01" nType="1"/>
            <Node pos="r" depth="3" NCoef="0" IVar="-1" Cut="0.0000000000000000e+00" cType="1" res="-9.9000000000000000e+01" rms="0.0000000000000000e+00" purity="4.2976325750350952e-01" nType="-1"/>
          </Node>
          <Node pos="r" depth="2" NCoef="0" IVar="-1" Cut="4.1123565673828125e+02" cType="1" res="-9.9000000000000000e+01" rms="0.0000000000000000e+00" purity="2.1910259127616882e-01" nType="-1"/>
        </Node>
        <Node pos="r" depth="1" NCoef="0" IVar="-1" Cut="0.0000000000000000e+00" cType="1" res="-9.9000000000000000e+01" rms="0.0000000000000000e+00" purity="0.0000000000000000e+00" nType="-1"/>
      </Node>
    </BinaryTree>
    <BinaryTree type="DecisionTree" boostWeight="2.0510880568325773e-01" itree="21">
      <Node pos="s" depth="0" NCoef="0" IVar="9" Cut="2.0586912631988525e+00" cType="0" res="-9.9000000000000000e+01" rms="0.0000000000000000e+00" purity="4.6505844593048096e-01" nType="0">
        <Node pos="l" depth="1" NCoef="0" IVar="4" Cut="2.2299395751953125e+02" cType="1" res="-9.9000000000000000e+01" rms="0.0000000000000000e+00" purity="5.0623881816864014e-01" nType="0">
          <Node pos="l" depth="2" NCoef="0" IVar="4" Cut="9.5293739318847656e+01" cType="0" res="-9.9000000000000000e+01" rms="0.0000000000000000e+00" purity="5.2210140228271484e-01" nType="0">
            <Node pos="l" depth="3" NCoef="0" IVar="-1" Cut="0.0000000000000000e+00" cType="1" res="-9.9000000000000000e+01" rms="0.0000000000000000e+00" purity="5.4531937837600708e-01" nType="1"/>
            <Node pos="r" depth="3" NCoef="0" IVar="-1" Cut="0.0000000000000000e+00" cType="1" res="-9.9000000000000000e+01" rms="0.0000000000000000e+00" purity="3.3384805917739868e-01" nType="-1"/>
          </Node>
          <Node pos="r" depth="2" NCoef="0" IVar="-1" Cut="1.3412072753906250e+02" cType="0" res="-9.9000000000000000e+01" rms="0.0000000000000000e+00" purity="1.1157702654600143e-01" nType="-1"/>
        </Node>
        <Node pos="r" depth="1" NCoef="0" IVar="10" Cut="7.8920562744140625e+01" cType="0" res="-9.9000000000000000e+01" rms="0.0000000000000000e+00" purity="3.9736267924308777e-01" nType="0">
          <Node pos="l" depth="2" NCoef="0" IVar="14" Cut="1.0650253295898438e+00" cType="0" res="-9.9000000000000000e+01" rms="0.0000000000000000e+00" purity="4.6104595065116882e-01" nType="0">
            <Node pos="l" depth="3" NCoef="0" IVar="-1" Cut="0.0000000000000000e+00" cType="1" res="-9.9000000000000000e+01" rms="0.0000000000000000e+00" purity="6.0939991474151611e-01" nType="1"/>
            <Node pos="r" depth="3" NCoef="0" IVar="-1" Cut="0.0000000000000000e+00" cType="1" res="-9.9000000000000000e+01" rms="0.0000000000000000e+00" purity="4.0252792835235596e-01" nType="-1"/>
          </Node>
          <Node pos="r" depth="2" NCoef="0" IVar="-1" Cut="4.0430809020996094e+01" cType="1" res="-9.9000000000000000e+01" rms="0.0000000000000000e+00" purity="1.8707011640071869e-01" nType="-1"/>
        </Node>
      </Node>
    </BinaryTree>
    <BinaryTree type="DecisionTree" boostWeight="1.6505493910997990e-01" itree="22">
      <Node pos="s" depth="0" NCoef="0" IVar="7" Cut="3.8902621459960938e+02" cType="1" res="-9.9000000000000000e+01" rms="0.0000000000000000e+00" purity="4.5239979028701782e-01" nType="0">
        <Node pos="l" depth="1" NCoef="0" IVar="6" Cut="1.3134416198730469e+02" cType="0" res="-9.9000000000000000e+01" rms="0.0000000000000000e+00" purity="4.5836874842643738e-01" nType="0">
          <Node pos="l" depth="2" NCoef="0" IVar="1" Cut="2.6315658092498779e+00" cType="0" res="-9.9000000000000000e+01" rms="0.0000000000000000e+00" purity="5.5008220672607422e-01" nType="0">
            <Node pos="l" depth="3" NCoef="0" IVar="-1" Cut="0.0000000000000000e+00" cType="1" res="-9.9000000000000000e+01" rms="0.0000000000000000e+00" purity="5.7512110471725464e-01" nType="1"/>
            <Node pos="r" depth="3" NCoef="0" IVar="-1" Cut="0.0000000000000000e+00" cType="1" res="-9.9000000000000000e+01" rms="0.0000000000000000e+00" purity="1.9896546006202698e-01" nType="-1"/>
          </Node>
          <Node pos="r" depth="2" NCoef="0" IVar="-1" Cut="1.3901536464691162e+00" cType="0" res="-9.9000000000000000e+01" rms="0.0000000000000000e+00" purity="4.2828783392906189e-01" nType="-1"/>
        </Node>
        <Node pos="r" depth="1" NCoef="0" IVar="-1" Cut="0.0000000000000000e+00" cType="1" res="-9.9000000000000000e+01" rms="0.0000000000000000e+00" purity="0.0000000000000000e+00" nType="-1"/>
      </Node>
    </BinaryTree>
    <BinaryTree type="DecisionTree" boostWeight="7.4496169624638370e-02" itree="23">
      <Node pos="s" depth="0" NCoef="0" IVar="7" Cut="3.8902621459960938e+02" cType="1" res="-9.9000000000000000e+01" rms="0.0000000000000000e+00" purity="4.7449088096618652e-01" nType="0">
        <Node pos="l" depth="1" NCoef="0" IVar="9" Cut="1.1934858560562134e+00" cType="0" res="-9.9000000000000000e+01" rms="0.0000000000000000e+00" purity="4.8030889034271240e-01" nType="0">
          <Node pos="l" depth="2" NCoef="0" IVar="4" Cut="2.2299395751953125e+02" cType="1" res="-9.9000000000000000e+01" rms="0.0000000000000000e+00" purity="4.9445876479148865e-01" nType="0">
            <Node pos="l" depth="3" NCoef="0" IVar="-1" Cut="0.0000000000000000e+00" cType="1" res="-9.9000000000000000e+01" rms="0.0000000000000000e+00" purity="5.0569742918014526e-01" nType="1"/>
            <Node pos="r" depth="3" NCoef="0" IVar="-1" Cut="0.0000000000000000e+00" cType="1" res="-9.9000000000000000e+01" rms="0.0000000000000000e+00" purity="3.0901858210563660e-01" nType="-1"/>
          </Node>
          <Node pos="r" depth="2" NCoef="0" IVar="6" Cut="1.8518843078613281e+02" cType="0" res="-9.9000000000000000e+01" rms="0.0000000000000000e+00" purity="3.2873889803886414e-01" nType="0">
            <Node pos="l" depth="3" NCoef="0" IVar="-1" Cut="0.0000000000000000e+00" cType="1" res="-9.9000000000000000e+01" rms="0.0000000000000000e+00" purity="5.1938986778259277e-01" nType="1"/>
            <Node pos="r" depth="3" NCoef="0" IVar="-1" Cut="0.0000000000000000e+00" cType="1" res="-9.9000000000000000e+01" rms="0.0000000000000000e+00" purity="4.2669299989938736e-02" nType="-1"/>
          </Node>
        </Node>
        <Node pos="r" depth="1" NCoef="0" IVar="-1" Cut="0.0000000000000000e+00" cType="1" res="-9.9000000000000000e+01" rms="0.0000000000000000e+00" purity="0.0000000000000000e+00" nType="-1"/>
      </Node>
    </BinaryTree>
    <BinaryTree type="DecisionTree" boostWeight="8.1394996185897947e-02" itree="24">
      <Node pos="s" depth="0" NCoef="0" IVar="-1" Cut="3.8902621459960938e+02" cType="1" res="-9.9000000000000000e+01" rms="0.0000000000000000e+00" purity="4.5939216017723083e-01" nType="-1"/>
    </BinaryTree>
    <BinaryTree type="DecisionTree" boostWeight="1.3709971974264340e-01" itree="25">
      <Node pos="s" depth="0" NCoef="0" IVar="8" Cut="9.6106285095214844e+01" cType="1" res="-9.9000000000000000e+01" rms="0.0000000000000000e+00" purity="4.7966247797012329e-01" nType="0">
        <Node pos="l" depth="1" NCoef="0" IVar="4" Cut="1.0164513397216797e+02" cType="0" res="-9.9000000000000000e+01" rms="0.0000000000000000e+00" purity="4.9402344226837158e-01" nType="0">
          <Node pos="l" depth="2" NCoef="0" IVar="6" Cut="7.9090812683105469e+01" cType="0" res="-9.9000000000000000e+01" rms="0.0000000000000000e+00" purity="5.1213026046752930e-01" nType="0">
            <Node pos="l" depth="3" NCoef="0" IVar="-1" Cut="0.0000000000000000e+00" cType="1" res="-9.9000000000000000e+01" rms="0.0000000000000000e+00" purity="5.5219841003417969e-01" nType="1"/>
            <Node pos="r" depth="3" NCoef="0" IVar="-1" Cut="0.0000000000000000e+00" cType="1" res="-9.9000000000000000e+01" rms="0.0000000000000000e+00" purity="4.5813316106796265e-01" nType="-1"/>
          </Node>
          <Node pos="r" depth="2" NCoef="0" IVar="-1" Cut="1.2947459411621094e+02" cType="0" res="-9.9000000000000000e+01" rms="0.0000000000000000e+00" purity="3.8000246882438660e-01" nType="-1"/>
        </Node>
        <Node pos="r" depth="1" NCoef="0" IVar="7" Cut="2.2013171386718750e+02" cType="1" res="-9.9000000000000000e+01" rms="0.0000000000000000e+00" purity="3.2370546460151672e-01" nType="0">
          <Node pos="l" depth="2" NCoef="0" IVar="5" Cut="5.0369674682617188e+01" cType="0" res="-9.9000000000000000e+01" rms="0.0000000000000000e+00" purity="4.2571225762367249e-01" nType="0">
            <Node pos="l" depth="3" NCoef="0" IVar="-1" Cut="0.0000000000000000e+00" cType="1" res="-9.9000000000000000e+01" rms="0.0000000000000000e+00" purity="5.0497579574584961e-01" nType="1"/>
            <Node pos="r" depth="3" NCoef="0" IVar="-1" Cut="0.0000000000000000e+00" cType="1" res="-9.9000000000000000e+01" rms="0.0000000000000000e+00" purity="2.6034954190254211e-01" nType="-1"/>
          </Node>
          <Node pos="r" depth="2" NCoef="0" IVar="-1" Cut="0.0000000000000000e+00" cType="1" res="-9.9000000000000000e+01" rms="0.0000000000000000e+00" purity="0.0000000000000000e+00" nType="-1"/>
        </Node>
      </Node>
    </BinaryTree>
    <BinaryTree type="DecisionTree" boostWeight="2.1113532510040794e-01" itree="26">
      <Node pos="s" depth="0" NCoef="0" IVar="9" Cut="2.5306560993194580e+00" cType="0" res="-9.9000000000000000e+01" rms="0.0000000000000000e+00" purity="4.7968220710754395e-01" nType="0">
        <Node pos="l" depth="1" NCoef="0" IVar="4" Cut="1.8357051086425781e+02" cType="1" res="-9.9000000000000000e+01" rms="0.0000000000000000e+00" purity="5.4151231050491333e-01" nType="0">
          <Node pos="l" depth="2" NCoef="0" IVar="10" Cut="1.1770961761474609e+02" cType="1" res="-9.9000000000000000e+01" rms="0.0000000000000000e+00" purity="5.7078582048416138e-01" nType="0">
            <Node pos="l" depth="3" NCoef="0" IVar="-1" Cut="0.0000000000000000e+00" cType="1" res="-9.9000000000000000e+01" rms="0.0000000000000000e+00" purity="6.0695755481719971e-01" nType="1"/>
            <Node pos="r" depth="3" NCoef="0" IVar="-1" Cut="0.0000000000000000e+00" cType="1" res="-9.9000000000000000e+01" rms="0.0000000000000000e+00" purity="3.7589582800865173e-01" nType="-1"/>
          </Node>
          <Node pos="r" depth="2" NCoef="0" IVar="-1" Cut="2.1741513061523438e+02" cType="1" res="-9.9000000000000000e+01" rms="0.0000000000000000e+00" purity="1.8130886554718018e-01" nType="-1"/>
        </Node>
        <Node pos="r" depth="1" NCoef="0" IVar="7" Cut="2.5501727294921875e+02" cType="1" res="-9.9000000000000000e+01" rms="0.0000000000000000e+00" purity="4.3595552444458008e-01" nType="0">
          <Node pos="l" depth="2" NCoef="0" IVar="12" Cut="6.3068634033203125e+01" cType="0" res="-9.9000000000000000e+01" rms="0.0000000000000000e+00" purity="4.4929194450378418e-01" nType="0">
            <Node pos="l" depth="3" NCoef="0" IVar="-1" Cut="0.0000000000000000e+00" cType="1" res="-9.9000000000000000e+01" rms="0.0000000000000000e+00" purity="5.2976769208908081e-01" nType="1"/>
            <Node pos="r" depth="3" NCoef="0" IVar="-1" Cut="0.0000000000000000e+00" cType="1" res="-9.9000000000000000e+01" rms="0.0000000000000000e+00" purity="3.8833054900169373e-01" nType="-1"/>
          </Node>
          <Node pos="r" depth="2" NCoef="0" IVar="-1" Cut="0.0000000000000000e+00" cType="1" res="-9.9000000000000000e+01" rms="0.0000000000000000e+00" purity="0.0000000000000000e+00" nType="-1"/>
        </Node>
      </Node>
    </BinaryTree>
    <BinaryTree type="DecisionTree" boostWeight="9.1116177852703845e-02" itree="27">
      <Node pos="s" depth="0" NCoef="0" IVar="9" Cut="8.7877935171127319e-01" cType="0" res="-9.9000000000000000e+01" rms="0.0000000000000000e+00" purity="4.7190362215042114e-01" nType="0">
        <Node pos="l" depth="1" NCoef="0" IVar="7" Cut="1.9600721740722656e+02" cType="1" res="-9.9000000000000000e+01" rms="0.0000000000000000e+00" purity="4.8174870014190674e-01" nType="0">
          <Node pos="l" depth="2" NCoef="0" IVar="1" Cut="4.0439739227294922e+00" cType="0" res="-9.9000000000000000e+01" rms="0.0000000000000000e+00" purity="5.1101225614547729e-01" nType="0">
            <Node pos="l" depth="3" NCoef="0" IVar="-1" Cut="0.0000000000000000e+00" cType="1" res="-9.9000000000000000e+01" rms="0.0000000000000000e+00" purity="6.8395876884460449e-01" nType="1"/>
            <Node pos="r" depth="3" NCoef="0" IVar="-1" Cut="0.0000000000000000e+00" cType="1" res="-9.9000000000000000e+01" rms="0.0000000000000000e+00" purity="4.9902787804603577e-01" nType="-1"/>
          </Node>
          <Node pos="r" depth="2" NCoef="0" IVar="-1" Cut="2.1621007919311523e+00" cType="0" res="-9.9000000000000000e+01" rms="0.0000000000000000e+00" purity="3.9101016521453857e-01" nType="-1"/>
        </Node>
        <Node pos="r" depth="1" NCoef="0" IVar="-1" Cut="2.1120147705078125e+02" cType="0" res="-9.9000000000000000e+01" rms="0.0000000000000000e+00" purity="2.2540470957756042e-01" nType="-1"/>
      </Node>
    </BinaryTree>
    <BinaryTree type="DecisionTree" boostWeight="1.0632318197427902e-01" itree="28">
      <Node pos="s" depth="0" NCoef="0" IVar="9" Cut="8.7877935171127319e-01" cType="0" res="-9.9000000000000000e+01" rms="0.0000000000000000e+00" purity="4.9249064922332764e-01" nType="0">
        <Node pos="l" depth="1" NCoef="0" IVar="7" Cut="1.9600721740722656e+02" cType="1" res="-9.9000000000000000e+01" rms="0.0000000000000000e+00" purity="5.0228869915008545e-01" nType="0">
          <Node pos="l" depth="2" NCoef="0" IVar="5" Cut="6.2751670837402344e+01" cType="0" res="-9.9000000000000000e+01" rms="0.0000000000000000e+00" purity="5.3086125850677490e-01" nType="0">
            <Node pos="l" depth="3" NCoef="0" IVar="-1" Cut="0.0000000000000000e+00" cType="1" res="-9.9000000000000000e+01" rms="0.0000000000000000e+00" purity="5.8945178985595703e-01" nType="1"/>
            <Node pos="r" depth="3" NCoef="0" IVar="-1" Cut="0.0000000000000000e+00" cType="1" res="-9.9000000000000000e+01" rms="0.0000000000000000e+00" purity="4.9953648447990417e-01" nType="-1"/>
          </Node>
          <Node pos="r" depth="2" NCoef="0" IVar="-1" Cut="2.1621007919311523e+00" cType="0" res="-9.9000000000000000e+01" rms="0.0000000000000000e+00" purity="4.1290917992591858e-01" nType="-1"/>
        </Node>
        <Node pos="r" depth="1" NCoef="0" IVar="-1" Cut="2.1120147705078125e+02" cType="0" res="-9.9000000000000000e+01" rms="0.0000000000000000e+00" purity="2.4171005189418793e-01" nType="-1"/>
      </Node>
    </BinaryTree>
    <BinaryTree type="DecisionTree" boostWeight="1.4749448719847374e-01" itree="29">
      <Node pos="s" depth="0" NCoef="0" IVar="9" Cut="1.3507441282272339e+00" cType="0" res="-9.9000000000000000e+01" rms="0.0000000000000000e+00" purity="5.0558418035507202e-01" nType="0">
        <Node pos="l" depth="1" NCoef="0" IVar="4" Cut="2.2299395751953125e+02" cType="1" res="-9.9000000000000000e+01" rms="0.0000000000000000e+00" purity="5.2426123619079590e-01" nType="0">
          <Node pos="l" depth="2" NCoef="0" IVar="8" Cut="1.0887700653076172e+02" cType="1" res="-9.9000000000000000e+01" rms="0.0000000000000000e+00" purity="5.3459119796752930e-01" nType="0">
            <Node pos="l" depth="3" NCoef="0" IVar="-1" Cut="0.0000000000000000e+00" cType="1" res="-9.9000000000000000e+01" rms="0.0000000000000000e+00" purity="5.4215073585510254e-01" nType="1"/>
            <Node pos="r" depth="3" NCoef="0" IVar="-1" Cut="0.0000000000000000e+00" cType="1" res="-9.9000000000000000e+01" rms="0.0000000000000000e+00" purity="2.8263360261917114e-01" nType="-1"/>
          </Node>
          <Node pos="r" depth="2" NCoef="0" IVar="0" Cut="2.5701715087890625e+02" cType="1" res="-9.9000000000000000e+01" rms="0.0000000000000000e+00" purity="3.1018814444541931e-01" nType="0">
            <Node pos="l" depth="3" NCoef="0" IVar="-1" Cut="0.0000000000000000e+00" cType="1" res="-9.9000000000000000e+01" rms="0.0000000000000000e+00" purity="5.2728796005249023e-01" nType="1"/>
            <Node pos="r" depth="3" NCoef="0" IVar="-1" Cut="0.0000000000000000e+00" cType="1" res="-9.9000000000000000e+01" rms="0.0000000000000000e+00" purity="8.5633873939514160e-02" nType="-1"/>
          </Node>
        </Node>
        <Node pos="r" depth="1" NCoef="0" IVar="10" Cut="1.5576864624023438e+02" cType="0" res="-9.9000000000000000e+01" rms="0.0000000000000000e+00" purity="3.6113813519477844e-01" nType="0">
          <Node pos="l" depth="2" NCoef="0" IVar="9" Cut="9.0316069126129150e-01" cType="0" res="-9.9000000000000000e+01" rms="0.0000000000000000e+00" purity="4.9478334188461304e-01" nType="0">
            <Node pos="l" depth="3" NCoef="0" IVar="-1" Cut="0.0000000000000000e+00" cType="1" res="-9.9000000000000000e+01" rms="0.0000000000000000e+00" purity="5.7979142665863037e-01" nType="1"/>
            <Node pos="r" depth="3" NCoef="0" IVar="-1" Cut="0.0000000000000000e+00" cType="1" res="-9.9000000000000000e+01" rms="0.0000000000000000e+00" purity="3.2722941040992737e-01" nType="-1"/>
          </Node>
          <Node pos="r" depth="2" NCoef="0" IVar="-1" Cut="1.3362606811523438e+02" cType="0" res="-9.9000000000000000e+01" rms="0.0000000000000000e+00" purity="4.3542739003896713e-02" nType="-1"/>
        </Node>
      </Node>
    </BinaryTree>
    <BinaryTree type="DecisionTree" boostWeight="8.5229246627518240e-02" itree="30">
      <Node pos="s" depth="0" NCoef="0" IVar="1" Cut="1.7249790430068970e+00" cType="0" res="-9.9000000000000000e+01" rms="0.0000000000000000e+00" purity="4.7630119323730469e-01" nType="0">
        <Node pos="l" depth="1" NCoef="0" IVar="9" Cut="6.4279699325561523e-01" cType="0" res="-9.9000000000000000e+01" rms="0.0000000000000000e+00" purity="4.8528254032135010e-01" nType="0">
          <Node pos="l" depth="2" NCoef="0" IVar="9" Cut="1.7674264907836914e+00" cType="0" res="-9.9000000000000000e+01" rms="0.0000000000000000e+00" purity="4.9017384648323059e-01" nType="0">
            <Node pos="l" depth="3" NCoef="0" IVar="-1" Cut="0.0000000000000000e+00" cType="1" res="-9.9000000000000000e+01" rms="0.0000000000000000e+00" purity="5.1120936870574951e-01" nType="1"/>
            <Node pos="r" depth="3" NCoef="0" IVar="-1" Cut="0.0000000000000000e+00" cType="1" res="-9.9000000000000000e+01" rms="0.0000000000000000e+00" purity="4.2522796988487244e-01" nType="-1"/>
          </Node>
          <Node pos="r" depth="2" NCoef="0" IVar="-1" Cut="0.0000000000000000e+00" cType="1" res="-9.9000000000000000e+01" rms="0.0000000000000000e+00" purity="9.2755392193794250e-02" nType="-1"/>
        </Node>
        <Node pos="r" depth="1" NCoef="0" IVar="11" Cut="4.1123565673828125e+02" cType="1" res="-9.9000000000000000e+01" rms="0.0000000000000000e+00" purity="2.6640170812606812e-01" nType="0">
          <Node pos="l" depth="2" NCoef="0" IVar="11" Cut="3.7966915893554688e+02" cType="0" res="-9.9000000000000000e+01" rms="0.0000000000000000e+00" purity="4.3109840154647827e-01" nType="0">
            <Node pos="l" depth="3" NCoef="0" IVar="-1" Cut="0.0000000000000000e+00" cType="1" res="-9.9000000000000000e+01" rms="0.0000000000000000e+00" purity="6.0343128442764282e-01" nType="1"/>
            <Node pos="r" depth="3" NCoef="0" IVar="-1" Cut="0.0000000000000000e+00" cType="1" res="-9.9000000000000000e+01" rms="0.0000000000000000e+00" purity="2.3771323263645172e-01" nType="-1"/>
          </Node>
          <Node pos="r" depth="2" NCoef="0" IVar="-1" Cut="0.0000000000000000e+00" cType="1" res="-9.9000000000000000e+01" rms="0.0000000000000000e+00" purity="0.0000000000000000e+00" nType="-1"/>
        </Node>
      </Node>
    </BinaryTree>
    <BinaryTree type="DecisionTree" boostWeight="1.0489987947724924e-01" itree="31">
      <Node pos="s" depth="0" NCoef="0" IVar="1" Cut="1.7249790430068970e+00" cType="0" res="-9.9000000000000000e+01" rms="0.0000000000000000e+00" purity="4.6643331646919250e-01" nType="0">
        <Node pos="l" depth="1" NCoef="0" IVar="8" Cut="9.6106285095214844e+01" cType="1" res="-9.9000000000000000e+01" rms="0.0000000000000000e+00" purity="4.7473582625389099e-01" nType="0">
          <Node pos="l" depth="2" NCoef="0" IVar="6" Cut="2.0972419738769531e+02" cType="0" res="-9.9000000000000000e+01" rms="0.0000000000000000e+00" purity="4.8497942090034485e-01" nType="0">
            <Node pos="l" depth="3" NCoef="0" IVar="-1" Cut="0.0000000000000000e+00" cType="1" res="-9.9000000000000000e+01" rms="0.0000000000000000e+00" purity="6.6164195537567139e-01" nType="1"/>
            <Node pos="r" depth="3" NCoef="0" IVar="-1" Cut="0.0000000000000000e+00" cType="1" res="-9.9000000000000000e+01" rms="0.0000000000000000e+00" purity="4.7434344887733459e-01" nType="-1"/>
          </Node>
          <Node pos="r" depth="2" NCoef="0" IVar="-1" Cut="2.2013171386718750e+02" cType="1" res="-9.9000000000000000e+01" rms="0.0000000000000000e+00" purity="3.5769793391227722e-01" nType="-1"/>
        </Node>
        <Node pos="r" depth="1" NCoef="0" IVar="11" Cut="4.1123565673828125e+02" cType="1" res="-9.9000000000000000e+01" rms="0.0000000000000000e+00" purity="2.6782304048538208e-01" nType="0">
          <Node pos="l" depth="2" NCoef="0" IVar="14" Cut="8.4566217660903931e-01" cType="0" res="-9.9000000000000000e+01" rms="0.0000000000000000e+00" purity="4.2879125475883484e-01" nType="0">
            <Node pos="l" depth="3" NCoef="0" IVar="-1" Cut="0.0000000000000000e+00" cType="1" res="-9.9000000000000000e+01" rms="0.0000000000000000e+00" purity="5.9526586532592773e-01" nType="1"/>
            <Node pos="r" depth="3" NCoef="0" IVar="-1" Cut="0.0000000000000000e+00" cType="1" res="-9.9000000000000000e+01" rms="0.0000000000000000e+00" purity="2.4763239920139313e-01" nType="-1"/>
          </Node>
          <Node pos="r" depth="2" NCoef="0" IVar="-1" Cut="0.0000000000000000e+00" cType="1" res="-9.9000000000000000e+01" rms="0.0000000000000000e+00" purity="0.0000000000000000e+00" nType="-1"/>
        </Node>
      </Node>
    </BinaryTree>
    <BinaryTree type="DecisionTree" boostWeight="9.7369713583532969e-02" itree="32">
      <Node pos="s" depth="0" NCoef="0" IVar="1" Cut="1.7249790430068970e+00" cType="0" res="-9.9000000000000000e+01" rms="0.0000000000000000e+00" purity="4.8926463723182678e-01" nType="0">
        <Node pos="l" depth="1" NCoef="0" IVar="9" Cut="1.3507441282272339e+00" cType="0" res="-9.9000000000000000e+01" rms="0.0000000000000000e+00" purity="4.9819254875183105e-01" nType="0">
          <Node pos="l" depth="2" NCoef="0" IVar="3" Cut="3.5872530937194824e-01" cType="0" res="-9.9000000000000000e+01" rms="0.0000000000000000e+00" purity="5.1112771034240723e-01" nType="0">
            <Node pos="l" depth="3" NCoef="0" IVar="-1" Cut="0.0000000000000000e+00" cType="1" res="-9.9000000000000000e+01" rms="0.0000000000000000e+00" purity="5.2149307727813721e-01" nType="1"/>
            <Node pos="r" depth="3" NCoef="0" IVar="-1" Cut="0.0000000000000000e+00" cType="1" res="-9.9000000000000000e+01" rms="0.0000000000000000e+00" purity="3.6970579624176025e-01" nType="-1"/>
          </Node>
          <Node pos="r" depth="2" NCoef="0" IVar="10" Cut="1.5576864624023438e+02" cType="0" res="-9.9000000000000000e+01" rms="0.0000000000000000e+00" purity="3.9483070373535156e-01" nType="0">
            <Node pos="l" depth="3" NCoef="0" IVar="-1" Cut="0.0000000000000000e+00" cType="1" res="-9.9000000000000000e+01" rms="0.0000000000000000e+00" purity="5.1068991422653198e-01" nType="1"/>
            <Node pos="r" depth="3" NCoef="0" IVar="-1" Cut="0.0000000000000000e+00" cType="1" res="-9.9000000000000000e+01" rms="0.0000000000000000e+00" purity="6.1161801218986511e-02" nType="-1"/>
          </Node>
        </Node>
        <Node pos="r" depth="1" NCoef="0" IVar="11" Cut="4.1123565673828125e+02" cType="1" res="-9.9000000000000000e+01" rms="0.0000000000000000e+00" purity="2.6987215876579285e-01" nType="0">
          <Node pos="l" depth="2" NCoef="0" IVar="11" Cut="3.7966915893554688e+02" cType="0" res="-9.9000000000000000e+01" rms="0.0000000000000000e+00" purity="4.2636877298355103e-01" nType="0">
            <Node pos="l" depth="3" NCoef="0" IVar="-1" Cut="0.0000000000000000e+00" cType="1" res="-9.9000000000000000e+01" rms="0.0000000000000000e+00" purity="5.7337850332260132e-01" nType="1"/>
            <Node pos="r" depth="3" NCoef="0" IVar="-1" Cut="0.0000000000000000e+00" cType="1" res="-9.9000000000000000e+01" rms="0.0000000000000000e+00" purity="2.6583322882652283e-01" nType="-1"/>
          </Node>
          <Node pos="r" depth="2" NCoef="0" IVar="-1" Cut="0.0000000000000000e+00" cType="1" res="-9.9000000000000000e+01" rms="0.0000000000000000e+00" purity="0.0000000000000000e+00" nType="-1"/>
        </Node>
      </Node>
    </BinaryTree>
    <BinaryTree type="DecisionTree" boostWeight="5.9566804954409969e-02" itree="33">
      <Node pos="s" depth="0" NCoef="0" IVar="-1" Cut="6.4279699325561523e-01" cType="0" res="-9.9000000000000000e+01" rms="0.0000000000000000e+00" purity="4.7025176882743835e-01" nType="-1"/>
    </BinaryTree>
    <BinaryTree type="DecisionTree" boostWeight="9.5648587575129881e-02" itree="34">
      <Node pos="s" depth="0" NCoef="0" IVar="1" Cut="1.7249790430068970e+00" cType="0" res="-9.9000000000000000e+01" rms="0.0000000000000000e+00" purity="4.8511269688606262e-01" nType="0">
        <Node pos="l" depth="1" NCoef="0" IVar="9" Cut="8.7877935171127319e-01" cType="0" res="-9.9000000000000000e+01" rms="0.0000000000000000e+00" purity="4.9301126599311829e-01" nType="0">
          <Node pos="l" depth="2" NCoef="0" IVar="7" Cut="1.9600721740722656e+02" cType="1" res="-9.9000000000000000e+01" rms="0.0000000000000000e+00" purity="4.9953636527061462e-01" nType="0">
            <Node pos="l" depth="3" NCoef="0" IVar="-1" Cut="0.0000000000000000e+00" cType="1" res="-9.9000000000000000e+01" rms="0.0000000000000000e+00" purity="5.2033400535583496e-01" nType="1"/>
            <Node pos="r" depth="3" NCoef="0" IVar="-1" Cut="0.0000000000000000e+00" cType="1" res="-9.9000000000000000e+01" rms="0.0000000000000000e+00" purity="4.3084466457366943e-01" nType="-1"/>
          </Node>
          <Node pos="r" depth="2" NCoef="0" IVar="12" Cut="1.1267716979980469e+02" cType="0" res="-9.9000000000000000e+01" rms="0.0000000000000000e+00" purity="3.1179359555244446e-01" nType="0">
            <Node pos="l" depth="3" NCoef="0" IVar="-1" Cut="0.0000000000000000e+00" cType="1" res="-9.9000000000000000e+01" rms="0.0000000000000000e+00" purity="5.4932683706283569e-01" nType="1"/>
            <Node pos="r" depth="3" NCoef="0" IVar="-1" Cut="0.0000000000000000e+00" cType="1" res="-9.9000000000000000e+01" rms="0.0000000000000000e+00" purity="1.0252664238214493e-01" nType="-1"/>
          </Node>
        </Node>
        <Node pos="r" depth="1" NCoef="0" IVar="11" Cut="4.1123565673828125e+02" cType="1" res="-9.9000000000000000e+01" rms="0.0000000000000000e+00" purity="2.8389310836791992e-01" nType="0">
          <Node pos="l" depth="2" NCoef="0" IVar="13" Cut="5.5079650878906250e+01" cType="0" res="-9.9000000000000000e+01" rms="0.0000000000000000e+00" purity="4.3880197405815125e-01" nType="0">
            <Node pos="l" depth="3" NCoef="0" IVar="-1" Cut="0.0000000000000000e+00" cType="1" res="-9.9000000000000000e+01" rms="0.0000000000000000e+00" purity="5.9345674514770508e-01" nType="1"/>
            <Node pos="r" depth="3" NCoef="0" IVar="-1" Cut="0.0000000000000000e+00" cType="1" res="-9.9000000000000000e+01" rms="0.0000000000000000e+00" purity="2.8828614950180054e-01" nType="-1"/>
          </Node>
          <Node pos="r" depth="2" NCoef="0" IVar="-1" Cut="0.0000000000000000e+00" cType="1" res="-9.9000000000000000e+01" rms="0.0000000000000000e+00" purity="0.0000000000000000e+00" nType="-1"/>
        </Node>
      </Node>
    </BinaryTree>
    <BinaryTree type="DecisionTree" boostWeight="1.0971849403744907e-01" itree="35">
      <Node pos="s" depth="0" NCoef="0" IVar="1" Cut="1.7249790430068970e+00" cType="0" res="-9.9000000000000000e+01" rms="0.0000000000000000e+00" purity="4.7349178791046143e-01" nType="0">
        <Node pos="l" depth="1" NCoef="0" IVar="14" Cut="1.6983846426010132e+00" cType="0" res="-9.9000000000000000e+01" rms="0.0000000000000000e+00" purity="4.8064878582954407e-01" nType="0">
          <Node pos="l" depth="2" NCoef="0" IVar="0" Cut="2.1960893249511719e+02" cType="1" res="-9.9000000000000000e+01" rms="0.0000000000000000e+00" purity="5.7795435190200806e-01" nType="0">
            <Node pos="l" depth="3" NCoef="0" IVar="-1" Cut="0.0000000000000000e+00" cType="1" res="-9.9000000000000000e+01" rms="0.0000000000000000e+00" purity="6.2970179319381714e-01" nType="1"/>
            <Node pos="r" depth="3" NCoef="0" IVar="-1" Cut="0.0000000000000000e+00" cType="1" res="-9.9000000000000000e+01" rms="0.0000000000000000e+00" purity="1.5090209245681763e-01" nType="-1"/>
          </Node>
          <Node pos="r" depth="2" NCoef="0" IVar="-1" Cut="1.9783709049224854e+00" cType="0" res="-9.9000000000000000e+01" rms="0.0000000000000000e+00" purity="4.6770274639129639e-01" nType="-1"/>
        </Node>
        <Node pos="r" depth="1" NCoef="0" IVar="11" Cut="4.1123565673828125e+02" cType="1" res="-9.9000000000000000e+01" rms="0.0000000000000000e+00" purity="2.8692230582237244e-01" nType="0">
          <Node pos="l" depth="2" NCoef="0" IVar="10" Cut="7.1998260498046875e+01" cType="0" res="-9.9000000000000000e+01" rms="0.0000000000000000e+00" purity="4.3822035193443298e-01" nType="0">
            <Node pos="l" depth="3" NCoef="0" IVar="-1" Cut="0.0000000000000000e+00" cType="1" res="-9.9000000000000000e+01" rms="0.0000000000000000e+00" purity="5.8139085769653320e-01" nType="1"/>
            <Node pos="r" depth="3" NCoef="0" IVar="-1" Cut="0.0000000000000000e+00" cType="1" res="-9.9000000000000000e+01" rms="0.0000000000000000e+00" purity="2.9520165920257568e-01" nType="-1"/>
          </Node>
          <Node pos="r" depth="2" NCoef="0" IVar="-1" Cut="0.0000000000000000e+00" cType="1" res="-9.9000000000000000e+01" rms="0.0000000000000000e+00" purity="0.0000000000000000e+00" nType="-1"/>
        </Node>
      </Node>
    </BinaryTree>
    <BinaryTree type="DecisionTree" boostWeight="9.4204480620118408e-02" itree="36">
      <Node pos="s" depth="0" NCoef="0" IVar="1" Cut="1.7249790430068970e+00" cType="0" res="-9.9000000000000000e+01" rms="0.0000000000000000e+00" purity="4.9467182159423828e-01" nType="0">
        <Node pos="l" depth="1" NCoef="0" IVar="2" Cut="4.4226178526878357e-01" cType="0" res="-9.9000000000000000e+01" rms="0.0000000000000000e+00" purity="5.0232297182083130e-01" nType="0">
          <Node pos="l" depth="2" NCoef="0" IVar="0" Cut="1.1892133331298828e+02" cType="0" res="-9.9000000000000000e+01" rms="0.0000000000000000e+00" purity="5.1242136955261230e-01" nType="0">
            <Node pos="l" depth="3" NCoef="0" IVar="-1" Cut="0.0000000000000000e+00" cType="1" res="-9.9000000000000000e+01" rms="0.0000000000000000e+00" purity="5.2397000789642334e-01" nType="1"/>
            <Node pos="r" depth="3" NCoef="0" IVar="-1" Cut="0.0000000000000000e+00" cType="1" res="-9.9000000000000000e+01" rms="0.0000000000000000e+00" purity="3.6194702982902527e-01" nType="-1"/>
          </Node>
          <Node pos="r" depth="2" NCoef="0" IVar="-1" Cut="1.3831828308105469e+02" cType="1" res="-9.9000000000000000e+01" rms="0.0000000000000000e+00" purity="3.7125515937805176e-01" nType="-1"/>
        </Node>
        <Node pos="r" depth="1" NCoef="0" IVar="11" Cut="4.1123565673828125e+02" cType="1" res="-9.9000000000000000e+01" rms="0.0000000000000000e+00" purity="2.9026988148689270e-01" nType="0">
          <Node pos="l" depth="2" NCoef="0" IVar="13" Cut="5.5079650878906250e+01" cType="0" res="-9.9000000000000000e+01" rms="0.0000000000000000e+00" purity="4.3725049495697021e-01" nType="0">
            <Node pos="l" depth="3" NCoef="0" IVar="-1" Cut="0.0000000000000000e+00" cType="1" res="-9.9000000000000000e+01" rms="0.0000000000000000e+00" purity="5.7446235418319702e-01" nType="1"/>
            <Node pos="r" depth="3" NCoef="0" IVar="-1" Cut="0.0000000000000000e+00" cType="1" res="-9.9000000000000000e+01" rms="0.0000000000000000e+00" purity="2.9923766851425171e-01" nType="-1"/>
          </Node>
          <Node pos="r" depth="2" NCoef="0" IVar="-1" Cut="0.0000000000000000e+00" cType="1" res="-9.9000000000000000e+01" rms="0.0000000000000000e+00" purity="0.0000000000000000e+00" nType="-1"/>
        </Node>
      </Node>
    </BinaryTree>
    <BinaryTree type="DecisionTree" boostWeight="5.9454767439380003e-02" itree="37">
      <Node pos="s" depth="0" NCoef="0" IVar="1" Cut="1.7249790430068970e+00" cType="0" res="-9.9000000000000000e+01" rms="0.0000000000000000e+00" purity="4.7842362523078918e-01" nType="0">
        <Node pos="l" depth="1" NCoef="0" IVar="9" Cut="1.3507441282272339e+00" cType="0" res="-9.9000000000000000e+01" rms="0.0000000000000000e+00" purity="4.8521682620048523e-01" nType="0">
          <Node pos="l" depth="2" NCoef="0" IVar="4" Cut="2.2299395751953125e+02" cType="1" res="-9.9000000000000000e+01" rms="0.0000000000000000e+00" purity="4.9697938561439514e-01" nType="0">
            <Node pos="l" depth="3" NCoef="0" IVar="-1" Cut="0.0000000000000000e+00" cType="1" res="-9.9000000000000000e+01" rms="0.0000000000000000e+00" purity="5.0494378805160522e-01" nType="1"/>
            <Node pos="r" depth="3" NCoef="0" IVar="-1" Cut="0.0000000000000000e+00" cType="1" res="-9.9000000000000000e+01" rms="0.0000000000000000e+00" purity="3.2643961906433105e-01" nType="-1"/>
          </Node>
          <Node pos="r" depth="2" NCoef="0" IVar="-1" Cut="1.3015261840820312e+02" cType="0" res="-9.9000000000000000e+01" rms="0.0000000000000000e+00" purity="3.8940796256065369e-01" nType="-1"/>
        </Node>
        <Node pos="r" depth="1" NCoef="0" IVar="-1" Cut="9.1113162040710449e-01" cType="1" res="-9.9000000000000000e+01" rms="0.0000000000000000e+00" purity="2.9308444261550903e-01" nType="-1"/>
      </Node>
    </BinaryTree>
    <BinaryTree type="DecisionTree" boostWeight="1.0212916140494412e-01" itree="38">
      <Node pos="s" depth="0" NCoef="0" IVar="14" Cut="8.4921073913574219e-01" cType="0" res="-9.9000000000000000e+01" rms="0.0000000000000000e+00" purity="4.6883401274681091e-01" nType="0">
        <Node pos="l" depth="1" NCoef="0" IVar="6" Cut="2.2116056823730469e+02" cType="0" res="-9.9000000000000000e+01" rms="0.0000000000000000e+00" purity="5.0408273935317993e-01" nType="0">
          <Node pos="l" depth="2" NCoef="0" IVar="-1" Cut="0.0000000000000000e+00" cType="1" res="-9.9000000000000000e+01" rms="0.0000000000000000e+00" purity="7.4801576137542725e-01" nType="1"/>
          <Node pos="r" depth="2" NCoef="0" IVar="11" Cut="5.8784124755859375e+02" cType="1" res="-9.9000000000000000e+01" rms="0.0000000000000000e+00" purity="4.9052673578262329e-01" nType="0">
            <Node pos="l" depth="3" NCoef="0" IVar="-1" Cut="0.0000000000000000e+00" cType="1" res="-9.9000000000000000e+01" rms="0.0000000000000000e+00" purity="5.1019132137298584e-01" nType="1"/>
            <Node pos="r" depth="3" NCoef="0" IVar="-1" Cut="0.0000000000000000e+00" cType="1" res="-9.9000000000000000e+01" rms="0.0000000000000000e+00" purity="2.9121845960617065e-01" nType="-1"/>
          </Node>
        </Node>
        <Node pos="r" depth="1" NCoef="0" IVar="-1" Cut="2.0562639236450195e+00" cType="0" res="-9.9000000000000000e+01" rms="0.0000000000000000e+00" purity="4.3983021378517151e-01" nType="-1"/>
      </Node>
    </BinaryTree>
    <BinaryTree type="DecisionTree" boostWeight="1.2404064558571136e-01" itree="39">
      <Node pos="s" depth="0" NCoef="0" IVar="2" Cut="4.4226178526878357e-01" cType="0" res="-9.9000000000000000e+01" rms="0.0000000000000000e+00" purity="4.7313326597213745e-01" nType="0">
        <Node pos="l" depth="1" NCoef="0" IVar="3" Cut="3.5872530937194824e-01" cType="0" res="-9.9000000000000000e+01" rms="0.0000000000000000e+00" purity="4.8265269398689270e-01" nType="0">
          <Node pos="l" depth="2" NCoef="0" IVar="9" Cut="2.4037215709686279e+00" cType="0" res="-9.9000000000000000e+01" rms="0.0000000000000000e+00" purity="4.9201187491416931e-01" nType="0">
            <Node pos="l" depth="3" NCoef="0" IVar="-1" Cut="0.0000000000000000e+00" cType="1" res="-9.9000000000000000e+01" rms="0.0000000000000000e+00" purity="5.3753739595413208e-01" nType="1"/>
            <Node pos="r" depth="3" NCoef="0" IVar="-1" Cut="0.0000000000000000e+00" cType="1" res="-9.9000000000000000e+01" rms="0.0000000000000000e+00" purity="4.5505645871162415e-01" nType="-1"/>
          </Node>
          <Node pos="r" depth="2" NCoef="0" IVar="5" Cut="4.6358814239501953e+01" cType="1" res="-9.9000000000000000e+01" rms="0.0000000000000000e+00" purity="3.3703041076660156e-01" nType="0">
            <Node pos="l" depth="3" NCoef="0" IVar="-1" Cut="0.0000000000000000e+00" cType="1" res="-9.9000000000000000e+01" rms="0.0000000000000000e+00" purity="5.0591599941253662e-01" nType="1"/>
            <Node pos="r" depth="3" NCoef="0" IVar="-1" Cut="0.0000000000000000e+00" cType="1" res="-9.9000000000000000e+01" rms="0.0000000000000000e+00" purity="1.5226542949676514e-02" nType="-1"/>
          </Node>
        </Node>
        <Node pos="r" depth="1" NCoef="0" IVar="4" Cut="1.3831828308105469e+02" cType="1" res="-9.9000000000000000e+01" rms="0.0000000000000000e+00" purity="3.5040643811225891e-01" nType="0">
          <Node pos="l" depth="2" NCoef="0" IVar="11" Cut="4.2450134277343750e+02" cType="0" res="-9.9000000000000000e+01" rms="0.0000000000000000e+00" purity="4.7282183170318604e-01" nType="0">
            <Node pos="l" depth="3" NCoef="0" IVar="-1" Cut="0.0000000000000000e+00" cType="1" res="-9.9000000000000000e+01" rms="0.0000000000000000e+00" purity="6.3238352537155151e-01" nType="1"/>
            <Node pos="r" depth="3" NCoef="0" IVar="-1" Cut="0.0000000000000000e+00" cType="1" res="-9.9000000000000000e+01" rms="0.0000000000000000e+00" purity="3.6107692122459412e-01" nType="-1"/>
          </Node>
          <Node pos="r" depth="2" NCoef="0" IVar="-1" Cut="1.7127929687500000e+02" cType="0" res="-9.9000000000000000e+01" rms="0.0000000000000000e+00" purity="1.2690733373165131e-01" nType="-1"/>
        </Node>
      </Node>
    </BinaryTree>
    <BinaryTree type="DecisionTree" boostWeight="9.8139294727424012e-02" itree="40">
      <Node pos="s" depth="0" NCoef="0" IVar="6" Cut="1.8359751892089844e+02" cType="0" res="-9.9000000000000000e+01" rms="0.0000000000000000e+00" purity="4.7625970840454102e-01" nType="0">
        <Node pos="l" depth="1" NCoef="0" IVar="8" Cut="1.4570831298828125e+02" cType="1" res="-9.9000000000000000e+01" rms="0.0000000000000000e+00" purity="5.8565366268157959e-01" nType="0">
          <Node pos="l" depth="2" NCoef="0" IVar="6" Cut="2.0105117797851562e+02" cType="0" res="-9.9000000000000000e+01" rms="0.0000000000000000e+00" purity="6.1302220821380615e-01" nType="0">
            <Node pos="l" depth="3" NCoef="0" IVar="-1" Cut="0.0000000000000000e+00" cType="1" res="-9.9000000000000000e+01" rms="0.0000000000000000e+00" purity="6.4454925060272217e-01" nType="1"/>
            <Node pos="r" depth="3" NCoef="0" IVar="-1" Cut="0.0000000000000000e+00" cType="1" res="-9.9000000000000000e+01" rms="0.0000000000000000e+00" purity="4.2705234885215759e-01" nType="-1"/>
          </Node>
          <Node pos="r" depth="2" NCoef="0" IVar="-1" Cut="0.0000000000000000e+00" cType="1" res="-9.9000000000000000e+01" rms="0.0000000000000000e+00" purity="3.7015166878700256e-01" nType="-1"/>
        </Node>
        <Node pos="r" depth="1" NCoef="0" IVar="-1" Cut="1.3507441282272339e+00" cType="0" res="-9.9000000000000000e+01" rms="0.0000000000000000e+00" purity="4.6207731962203979e-01" nType="-1"/>
      </Node>
    </BinaryTree>
    <BinaryTree type="DecisionTree" boostWeight="7.2635225586074076e-02" itree="41">
      <Node pos="s" depth="0" NCoef="0" IVar="3" Cut="3.5872530937194824e-01" cType="0" res="-9.9000000000000000e+01" rms="0.0000000000000000e+00" purity="4.9648883938789368e-01" nType="0">
        <Node pos="l" depth="1" NCoef="0" IVar="2" Cut="4.5033597946166992e-01" cType="0" res="-9.9000000000000000e+01" rms="0.0000000000000000e+00" purity="5.0543272495269775e-01" nType="0">
          <Node pos="l" depth="2" NCoef="0" IVar="-1" Cut="3.3114063739776611e+00" cType="0" res="-9.9000000000000000e+01" rms="0.0000000000000000e+00" purity="5.1542687416076660e-01" nType="1"/>
          <Node pos="r" depth="2" NCoef="0" IVar="-1" Cut="1.3831828308105469e+02" cType="1" res="-9.9000000000000000e+01" rms="0.0000000000000000e+00" purity="3.7807923555374146e-01" nType="-1"/>
        </Node>
        <Node pos="r" depth="1" NCoef="0" IVar="5" Cut="4.6358814239501953e+01" cType="1" res="-9.9000000000000000e+01" rms="0.0000000000000000e+00" purity="3.5178974270820618e-01" nType="0">
          <Node pos="l" depth="2" NCoef="0" IVar="5" Cut="3.6242485046386719e+01" cType="1" res="-9.9000000000000000e+01" rms="0.0000000000000000e+00" purity="4.8604631423950195e-01" nType="0">
            <Node pos="l" depth="3" NCoef="0" IVar="-1" Cut="0.0000000000000000e+00" cType="1" res="-9.9000000000000000e+01" rms="0.0000000000000000e+00" purity="6.4139568805694580e-01" nType="1"/>
            <Node pos="r" depth="3" NCoef="0" IVar="-1" Cut="0.0000000000000000e+00" cType="1" res="-9.9000000000000000e+01" rms="0.0000000000000000e+00" purity="3.0367958545684814e-01" nType="-1"/>
          </Node>
          <Node pos="r" depth="2" NCoef="0" IVar="-1" Cut="0.0000000000000000e+00" cType="1" res="-9.9000000000000000e+01" rms="0.0000000000000000e+00" purity="9.9817469716072083e-02" nType="-1"/>
        </Node>
      </Node>
    </BinaryTree>
    <BinaryTree type="DecisionTree" boostWeight="6.1195493592859855e-02" itree="42">
      <Node pos="s" depth="0" NCoef="0" IVar="1" Cut="1.7249790430068970e+00" cType="0" res="-9.9000000000000000e+01" rms="0.0000000000000000e+00" purity="4.8214748501777649e-01" nType="0">
        <Node pos="l" depth="1" NCoef="0" IVar="3" Cut="3.5872530937194824e-01" cType="0" res="-9.9000000000000000e+01" rms="0.0000000000000000e+00" purity="4.8836496472358704e-01" nType="0">
          <Node pos="l" depth="2" NCoef="0" IVar="12" Cut="1.2914393615722656e+02" cType="0" res="-9.9000000000000000e+01" rms="0.0000000000000000e+00" purity="4.9609592556953430e-01" nType="0">
            <Node pos="l" depth="3" NCoef="0" IVar="-1" Cut="0.0000000000000000e+00" cType="1" res="-9.9000000000000000e+01" rms="0.0000000000000000e+00" purity="6.3177847862243652e-01" nType="1"/>
            <Node pos="r" depth="3" NCoef="0" IVar="-1" Cut="0.0000000000000000e+00" cType="1" res="-9.9000000000000000e+01" rms="0.0000000000000000e+00" purity="4.8850458860397339e-01" nType="-1"/>
          </Node>
          <Node pos="r" depth="2" NCoef="0" IVar="-1" Cut="4.6358814239501953e+01" cType="1" res="-9.9000000000000000e+01" rms="0.0000000000000000e+00" purity="3.6277347803115845e-01" nType="-1"/>
        </Node>
        <Node pos="r" depth="1" NCoef="0" IVar="-1" Cut="1.7523727416992188e+02" cType="1" res="-9.9000000000000000e+01" rms="0.0000000000000000e+00" purity="3.0567076802253723e-01" nType="-1"/>
      </Node>
    </BinaryTree>
    <BinaryTree type="DecisionTree" boostWeight="7.2595222934203826e-02" itree="43">
      <Node pos="s" depth="0" NCoef="0" IVar="1" Cut="1.7249790430068970e+00" cType="0" res="-9.9000000000000000e+01" rms="0.0000000000000000e+00" purity="4.9595928192138672e-01" nType="0">
        <Node pos="l" depth="1" NCoef="0" IVar="3" Cut="3.5872530937194824e-01" cType="0" res="-9.9000000000000000e+01" rms="0.0000000000000000e+00" purity="5.0213551521301270e-01" nType="0">
          <Node pos="l" depth="2" NCoef="0" IVar="8" Cut="9.6106285095214844e+01" cType="1" res="-9.9000000000000000e+01" rms="0.0000000000000000e+00" purity="5.0977998971939087e-01" nType="0">
            <Node pos="l" depth="3" NCoef="0" IVar="-1" Cut="0.0000000000000000e+00" cType="1" res="-9.9000000000000000e+01" rms="0.0000000000000000e+00" purity="5.1879942417144775e-01" nType="1"/>
            <Node pos="r" depth="3" NCoef="0" IVar="-1" Cut="0.0000000000000000e+00" cType="1" res="-9.9000000000000000e+01" rms="0.0000000000000000e+00" purity="4.0545311570167542e-01" nType="-1"/>
          </Node>
          <Node pos="r" depth="2" NCoef="0" IVar="5" Cut="4.6358814239501953e+01" cType="1" res="-9.9000000000000000e+01" rms="0.0000000000000000e+00" purity="3.7703531980514526e-01" nType="0">
            <Node pos="l" depth="3" NCoef="0" IVar="-1" Cut="0.0000000000000000e+00" cType="1" res="-9.9000000000000000e+01" rms="0.0000000000000000e+00" purity="5.0592362880706787e-01" nType="1"/>
            <Node pos="r" depth="3" NCoef="0" IVar="-1" Cut="0.0000000000000000e+00" cType="1" res="-9.9000000000000000e+01" rms="0.0000000000000000e+00" purity="1.1738520860671997e-01" nType="-1"/>
          </Node>
        </Node>
        <Node pos="r" depth="1" NCoef="0" IVar="7" Cut="1.7523727416992188e+02" cType="1" res="-9.9000000000000000e+01" rms="0.0000000000000000e+00" purity="3.1881082057952881e-01" nType="0">
          <Node pos="l" depth="2" NCoef="0" IVar="-1" Cut="0.0000000000000000e+00" cType="1" res="-9.9000000000000000e+01" rms="0.0000000000000000e+00" purity="5.0730556249618530e-01" nType="1"/>
          <Node pos="r" depth="2" NCoef="0" IVar="-1" Cut="0.0000000000000000e+00" cType="1" res="-9.9000000000000000e+01" rms="0.0000000000000000e+00" purity="1.4313672482967377e-01" nType="-1"/>
        </Node>
      </Node>
    </BinaryTree>
    <BinaryTree type="DecisionTree" boostWeight="1.3375440415773848e-01" itree="44">
      <Node pos="s" depth="0" NCoef="0" IVar="1" Cut="1.7249790430068970e+00" cType="0" res="-9.9000000000000000e+01" rms="0.0000000000000000e+00" purity="4.8170191049575806e-01" nType="0">
        <Node pos="l" depth="1" NCoef="0" IVar="6" Cut="1.0521749114990234e+02" cType="0" res="-9.9000000000000000e+01" rms="0.0000000000000000e+00" purity="4.8738029599189758e-01" nType="0">
          <Node pos="l" depth="2" NCoef="0" IVar="10" Cut="7.8951591491699219e+01" cType="0" res="-9.9000000000000000e+01" rms="0.0000000000000000e+00" purity="5.2635383605957031e-01" nType="0">
            <Node pos="l" depth="3" NCoef="0" IVar="-1" Cut="0.0000000000000000e+00" cType="1" res="-9.9000000000000000e+01" rms="0.0000000000000000e+00" purity="5.5932211875915527e-01" nType="1"/>
            <Node pos="r" depth="3" NCoef="0" IVar="-1" Cut="0.0000000000000000e+00" cType="1" res="-9.9000000000000000e+01" rms="0.0000000000000000e+00" purity="1.7337751388549805e-01" nType="-1"/>
          </Node>
          <Node pos="r" depth="2" NCoef="0" IVar="4" Cut="1.4414706420898438e+02" cType="1" res="-9.9000000000000000e+01" rms="0.0000000000000000e+00" purity="4.6282619237899780e-01" nType="0">
            <Node pos="l" depth="3" NCoef="0" IVar="-1" Cut="0.0000000000000000e+00" cType="1" res="-9.9000000000000000e+01" rms="0.0000000000000000e+00" purity="5.0850921869277954e-01" nType="1"/>
            <Node pos="r" depth="3" NCoef="0" IVar="-1" Cut="0.0000000000000000e+00" cType="1" res="-9.9000000000000000e+01" rms="0.0000000000000000e+00" purity="3.2049235701560974e-01" nType="-1"/>
          </Node>
        </Node>
        <Node pos="r" depth="1" NCoef="0" IVar="-1" Cut="1.7523727416992188e+02" cType="1" res="-9.9000000000000000e+01" rms="0.0000000000000000e+00" purity="3.1694912910461426e-01" nType="-1"/>
      </Node>
    </BinaryTree>
    <BinaryTree type="DecisionTree" boostWeight="1.1408950844199617e-01" itree="45">
      <Node pos="s" depth="0" NCoef="0" IVar="4" Cut="1.0472360992431641e+02" cType="0" res="-9.9000000000000000e+01" rms="0.0000000000000000e+00" purity="4.6195375919342041e-01" nType="0">
        <Node pos="l" depth="1" NCoef="0" IVar="3" Cut="4.5033597946166992e-01" cType="0" res="-9.9000000000000000e+01" rms="0.0000000000000000e+00" purity="4.7708386182785034e-01" nType="0">
          <Node pos="l" depth="2" NCoef="0" IVar="12" Cut="4.6549808502197266e+01" cType="0" res="-9.9000000000000000e+01" rms="0.0000000000000000e+00" purity="4.8630687594413757e-01" nType="0">
            <Node pos="l" depth="3" NCoef="0" IVar="-1" Cut="0.0000000000000000e+00" cType="1" res="-9.9000000000000000e+01" rms="0.0000000000000000e+00" purity="5.1090139150619507e-01" nType="1"/>
            <Node pos="r" depth="3" NCoef="0" IVar="-1" Cut="0.0000000000000000e+00" cType="1" res="-9.9000000000000000e+01" rms="0.0000000000000000e+00" purity="4.3272688984870911e-01" nType="-1"/>
          </Node>
          <Node pos="r" depth="2" NCoef="0" IVar="-1" Cut="4.5201919555664062e+01" cType="1" res="-9.9000000000000000e+01" rms="0.0000000000000000e+00" purity="3.5333195328712463e-01" nType="-1"/>
        </Node>
        <Node pos="r" depth="1" NCoef="0" IVar="0" Cut="1.2947459411621094e+02" cType="0" res="-9.9000000000000000e+01" rms="0.0000000000000000e+00" purity="3.8279727101325989e-01" nType="0">
          <Node pos="l" depth="2" NCoef="0" IVar="2" Cut="8.3918482065200806e-01" cType="1" res="-9.9000000000000000e+01" rms="0.0000000000000000e+00" purity="4.4499310851097107e-01" nType="0">
            <Node pos="l" depth="3" NCoef="0" IVar="-1" Cut="0.0000000000000000e+00" cType="1" res="-9.9000000000000000e+01" rms="0.0000000000000000e+00" purity="5.7206791639328003e-01" nType="1"/>
            <Node pos="r" depth="3" NCoef="0" IVar="-1" Cut="0.0000000000000000e+00" cType="1" res="-9.9000000000000000e+01" rms="0.0000000000000000e+00" purity="3.5080912709236145e-01" nType="-1"/>
          </Node>
          <Node pos="r" depth="2" NCoef="0" IVar="-1" Cut="2.3563504219055176e+00" cType="1" res="-9.9000000000000000e+01" rms="0.0000000000000000e+00" purity="2.2381418943405151e-01" nType="-1"/>
        </Node>
      </Node>
    </BinaryTree>
    <BinaryTree type="DecisionTree" boostWeight="1.2518467378318077e-01" itree="46">
      <Node pos="s" depth="0" NCoef="0" IVar="9" Cut="8.7877935171127319e-01" cType="0" res="-9.9000000000000000e+01" rms="0.0000000000000000e+00" purity="4.5685398578643799e-01" nType="0">
        <Node pos="l" depth="1" NCoef="0" IVar="7" Cut="1.9600721740722656e+02" cType="1" res="-9.9000000000000000e+01" rms="0.0000000000000000e+00" purity="4.6265366673469543e-01" nType="0">
          <Node pos="l" depth="2" NCoef="0" IVar="11" Cut="4.6437860107421875e+02" cType="0" res="-9.9000000000000000e+01" rms="0.0000000000000000e+00" purity="4.7993341088294983e-01" nType="0">
            <Node pos="l" depth="3" NCoef="0" IVar="-1" Cut="0.0000000000000000e+00" cType="1" res="-9.9000000000000000e+01" rms="0.0000000000000000e+00" purity="5.3755694627761841e-01" nType="1"/>
            <Node pos="r" depth="3" NCoef="0" IVar="-1" Cut="0.0000000000000000e+00" cType="1" res="-9.9000000000000000e+01" rms="0.0000000000000000e+00" purity="4.5012834668159485e-01" nType="-1"/>
          </Node>
          <Node pos="r" depth="2" NCoef="0" IVar="-1" Cut="2.1960893249511719e+02" cType="1" res="-9.9000000000000000e+01" rms="0.0000000000000000e+00" purity="4.0402024984359741e-01" nType="-1"/>
        </Node>
        <Node pos="r" depth="1" NCoef="0" IVar="-1" Cut="1.1267716979980469e+02" cType="0" res="-9.9000000000000000e+01" rms="0.0000000000000000e+00" purity="2.8798085451126099e-01" nType="-1"/>
      </Node>
    </BinaryTree>
    <BinaryTree type="DecisionTree" boostWeight="9.4971098147018804e-02" itree="47">
      <Node pos="s" depth="0" NCoef="0" IVar="9" Cut="1.3507441282272339e+00" cType="0" res="-9.9000000000000000e+01" rms="0.0000000000000000e+00" purity="4.7197815775871277e-01" nType="0">
        <Node pos="l" depth="1" NCoef="0" IVar="0" Cut="2.9481005859375000e+02" cType="1" res="-9.9000000000000000e+01" rms="0.0000000000000000e+00" purity="4.8340424895286560e-01" nType="0">
          <Node pos="l" depth="2" NCoef="0" IVar="8" Cut="6.3068634033203125e+01" cType="1" res="-9.9000000000000000e+01" rms="0.0000000000000000e+00" purity="4.9105399847030640e-01" nType="0">
            <Node pos="l" depth="3" NCoef="0" IVar="-1" Cut="0.0000000000000000e+00" cType="1" res="-9.9000000000000000e+01" rms="0.0000000000000000e+00" purity="5.1093989610671997e-01" nType="1"/>
            <Node pos="r" depth="3" NCoef="0" IVar="-1" Cut="0.0000000000000000e+00" cType="1" res="-9.9000000000000000e+01" rms="0.0000000000000000e+00" purity="4.3712845444679260e-01" nType="-1"/>
          </Node>
          <Node pos="r" depth="2" NCoef="0" IVar="3" Cut="7.3705106973648071e-01" cType="1" res="-9.9000000000000000e+01" rms="0.0000000000000000e+00" purity="3.0632987618446350e-01" nType="0">
            <Node pos="l" depth="3" NCoef="0" IVar="-1" Cut="0.0000000000000000e+00" cType="1" res="-9.9000000000000000e+01" rms="0.0000000000000000e+00" purity="5.5913573503494263e-01" nType="1"/>
            <Node pos="r" depth="3" NCoef="0" IVar="-1" Cut="0.0000000000000000e+00" cType="1" res="-9.9000000000000000e+01" rms="0.0000000000000000e+00" purity="1.8622517585754395e-01" nType="-1"/>
          </Node>
        </Node>
        <Node pos="r" depth="1" NCoef="0" IVar="10" Cut="1.3015261840820312e+02" cType="0" res="-9.9000000000000000e+01" rms="0.0000000000000000e+00" purity="3.7576553225517273e-01" nType="0">
          <Node pos="l" depth="2" NCoef="0" IVar="6" Cut="2.3721450805664062e+02" cType="0" res="-9.9000000000000000e+01" rms="0.0000000000000000e+00" purity="4.5814049243927002e-01" nType="0">
            <Node pos="l" depth="3" NCoef="0" IVar="-1" Cut="0.0000000000000000e+00" cType="1" res="-9.9000000000000000e+01" rms="0.0000000000000000e+00" purity="5.4770040512084961e-01" nType="1"/>
            <Node pos="r" depth="3" NCoef="0" IVar="-1" Cut="0.0000000000000000e+00" cType="1" res="-9.9000000000000000e+01" rms="0.0000000000000000e+00" purity="3.6587342619895935e-01" nType="-1"/>
          </Node>
          <Node pos="r" depth="2" NCoef="0" IVar="-1" Cut="0.0000000000000000e+00" cType="1" res="-9.9000000000000000e+01" rms="0.0000000000000000e+00" purity="0.0000000000000000e+00" nType="-1"/>
        </Node>
      </Node>
    </BinaryTree>
    <BinaryTree type="DecisionTree" boostWeight="9.6711485830841923e-02" itree="48">
      <Node pos="s" depth="0" NCoef="0" IVar="9" Cut="1.1147617101669312e+00" cType="0" res="-9.9000000000000000e+01" rms="0.0000000000000000e+00" purity="4.6317246556282043e-01" nType="0">
        <Node pos="l" depth="1" NCoef="0" IVar="0" Cut="2.9481005859375000e+02" cType="1" res="-9.9000000000000000e+01" rms="0.0000000000000000e+00" purity="4.7083410620689392e-01" nType="0">
          <Node pos="l" depth="2" NCoef="0" IVar="6" Cut="2.2116056823730469e+02" cType="0" res="-9.9000000000000000e+01" rms="0.0000000000000000e+00" purity="4.7767701745033264e-01" nType="0">
            <Node pos="l" depth="3" NCoef="0" IVar="-1" Cut="0.0000000000000000e+00" cType="1" res="-9.9000000000000000e+01" rms="0.0000000000000000e+00" purity="6.4673888683319092e-01" nType="1"/>
            <Node pos="r" depth="3" NCoef="0" IVar="-1" Cut="0.0000000000000000e+00" cType="1" res="-9.9000000000000000e+01" rms="0.0000000000000000e+00" purity="4.7102549672126770e-01" nType="-1"/>
          </Node>
          <Node pos="r" depth="2" NCoef="0" IVar="-1" Cut="2.3060630798339844e+02" cType="1" res="-9.9000000000000000e+01" rms="0.0000000000000000e+00" purity="3.2354083657264709e-01" nType="-1"/>
        </Node>
        <Node pos="r" depth="1" NCoef="0" IVar="6" Cut="2.3721450805664062e+02" cType="0" res="-9.9000000000000000e+01" rms="0.0000000000000000e+00" purity="3.4731733798980713e-01" nType="0">
          <Node pos="l" depth="2" NCoef="0" IVar="-1" Cut="0.0000000000000000e+00" cType="1" res="-9.9000000000000000e+01" rms="0.0000000000000000e+00" purity="5.2152979373931885e-01" nType="1"/>
          <Node pos="r" depth="2" NCoef="0" IVar="-1" Cut="1.8357051086425781e+02" cType="0" res="-9.9000000000000000e+01" rms="0.0000000000000000e+00" purity="1.4946627616882324e-01" nType="-1"/>
        </Node>
      </Node>
    </BinaryTree>
    <BinaryTree type="DecisionTree" boostWeight="5.0662067730588303e-02" itree="49">
